{"learner":{"attributes":{"best_iteration":"149","best_score":"0.03555286518676439","scikit_learn":"{\"_estimator_type\": \"classifier\"}"},"feature_names":[],"feature_types":[],"gradient_booster":{"model":{"cats":{"enc":[],"feature_segments":[],"sorted_idx":[]},"gbtree_model_param":{"num_parallel_tree":"1","num_trees":"3960"},"iteration_indptr":[0,22,44,66,88,110,132,154,176,198,220,242,264,286,308,330,352,374,396,418,440,462,484,506,528,550,572,594,616,638,660,682,704,726,748,770,792,814,836,858,880,902,924,946,968,990,1012,1034,1056,1078,1100,1122,1144,1166,1188,1210,1232,1254,1276,1298,1320,1342,1364,1386,1408,1430,1452,1474,1496,1518,1540,1562,1584,1606,1628,1650,1672,1694,1716,1738,1760,1782,1804,1826,1848,1870,1892,1914,1936,1958,1980,2002,2024,2046,2068,2090,2112,2134,2156,2178,2200,2222,2244,2266,2288,2310,2332,2354,2376,2398,2420,2442,2464,2486,2508,2530,2552,2574,2596,2618,2640,2662,2684,2706,2728,2750,2772,2794,2816,2838,2860,2882,2904,2926,2948,2970,2992,3014,3036,3058,3080,3102,3124,3146,3168,3190,3212,3234,3256,3278,3300,3322,3344,3366,3388,3410,3432,3454,3476,3498,3520,3542,3564,3586,3608,3630,3652,3674,3696,3718,3740,3762,3784,3806,3828,3850,3872,3894,3916,3938,3960],"tree_info":[0,1,2,3,4,5,6,7,8,9,10,11,12,13,14,15,16,17,18,19,20,21,0,1,2,3,4,5,6,7,8,9,10,11,12,13,14,15,16,17,18,19,20,21,0,1,2,3,4,5,6,7,8,9,10,11,12,13,14,15,16,17,18,19,20,21,0,1,2,3,4,5,6,7,8,9,10,11,12,13,14,15,16,17,18,19,20,21,0,1,2,3,4,5,6,7,8,9,10,11,12,13,14,15,16,17,18,19,20,21,0,1,2,3,4,5,6,7,8,9,10,11,12,13,14,15,16,17,18,19,20,21,0,1,2,3,4,5,6,7,8,9,10,11,12,13,14,15,16,17,18,19,20,21,0,1,2,3,4,5,6,7,8,9,10,11,12,13,14,15,16,17,18,19,20,21,0,1,2,3,4,5,6,7,8,9,10,11,12,13,14,15,16,17,18,19,20,21,0,1,2,3,4,5,6,7,8,9,10,11,12,13,14,15,16,17,18,19,20,21,0,1,2,3,4,5,6,7,8,9,10,11,12,13,14,15,16,17,18,19,20,21,0,1,2,3,4,5,6,7,8,9,10,11,12,13,14,15,16,17,18,19,20,21,0,1,2,3,4,5,6,7,8,9,10,11,12,13,14,15,16,17,18,19,20,21,0,1,2,3,4,5,6,7,8,9,10,11,12,13,14,15,16,17,18,19,20,21,0,1,2,3,4,5,6,7,8,9,10,11,12,13,14,15,16,17,18,19,20,21,0,1,2,3,4,5,6,7,8,9,10,11,12,13,14,15,16,17,18,19,20,21,0,1,2,3,4,5,6,7,8,9,10,11,12,13,14,15,16,17,18,19,20,21,0,1,2,3,4,5,6,7,8,9,10,11,12,13,14,15,16,17,18,19,20,21,0,1,2,3,4,5,6,7,8,9,10,11,12,13,14,15,16,17,18,19,20,21,0,1,2,3,4,5,6,7,8,9,10,11,12,13,14,15,16,17,18,19,20,21,0,1,2,3,4,5,6,7,8,9,10,11,12,13,14,15,16,17,18,19,20,21,0,1,2,3,4,5,6,7,8,9,10,11,12,13,14,15,16,17,18,19,20,21,0,1,2,3,4,5,6,7,8,9,10,11,12,13,14,15,16,17,18,19,20,21,0,1,2,3,4,5,6,7,8,9,10,11,12,13,14,15,16,17,18,19,20,21,0,1,2,3,4,5,6,7,8,9,10,11,12,13,14,15,16,17,18,19,20,21,0,1,2,3,4,5,6,7,8,9,10,11,12,13,14,15,16,17,18,19,20,21,0,1,2,3,4,5,6,7,8,9,10,11,12,13,14,15,16,17,18,19,20,21,0,1,2,3,4,5,6,7,8,9,10,11,12,13,14,15,16,17,18,19,20,21,0,1,2,3,4,5,6,7,8,9,10,11,12,13,14,15,16,17,18,19,20,21,0,1,2,3,4,5,6,7,8,9,10,11,12,13,14,15,16,17,18,19,20,21,0,1,2,3,4,5,6,7,8,9,10,11,12,13,14,15,16,17,18,19,20,21,0,1,2,3,4,5,6,7,8,9,10,11,12,13,14,15,16,17,18,19,20,21,0,1,2,3,4,5,6,7,8,9,10,11,12,13,14,15,16,17,18,19,20,21,0,1,2,3,4,5,6,7,8,9,10,11,12,13,14,15,16,17,18,19,20,21,0,1,2,3,4,5,6,7,8,9,10,11,12,13,14,15,16,17,18,19,20,21,0,1,2,3,4,5,6,7,8,9,10,11,12,13,14,15,16,17,18,19,20,21,0,1,2,3,4,5,6,7,8,9,10,11,12,13,14,15,16,17,18,19,20,21,0,1,2,3,4,5,6,7,8,9,10,11,12,13,14,15,16,17,18,19,20,21,0,1,2,3,4,5,6,7,8,9,10,11,12,13,14,15,16,17,18,19,20,21,0,1,2,3,4,5,6,7,8,9,10,11,12,13,14,15,16,17,18,19,20,21,0,1,2,3,4,5,6,7,8,9,10,11,12,13,14,15,16,17,18,19,20,21,0,1,2,3,4,5,6,7,8,9,10,11,12,13,14,15,16,17,18,19,20,21,0,1,2,3,4,5,6,7,8,9,10,11,12,13,14,15,16,17,18,19,20,21,0,1,2,3,4,5,6,7,8,9,10,11,12,13,14,15,16,17,18,19,20,21,0,1,2,3,4,5,6,7,8,9,10,11,12,13,14,15,16,17,18,19,20,21,0,1,2,3,4,5,6,7,8,9,10,11,12,13,14,15,16,17,18,19,20,21,0,1,2,3,4,5,6,7,8,9,10,11,12,13,14,15,16,17,18,19,20,21,0,1,2,3,4,5,6,7,8,9,10,11,12,13,14,15,16,17,18,19,20,21,0,1,2,3,4,5,6,7,8,9,10,11,12,13,14,15,16,17,18,19,20,21,0,1,2,3,4,5,6,7,8,9,10,11,12,13,14,15,16,17,18,19,20,21,0,1,2,3,4,5,6,7,8,9,10,11,12,13,14,15,16,17,18,19,20,21,0,1,2,3,4,5,6,7,8,9,10,11,12,13,14,15,16,17,18,19,20,21,0,1,2,3,4,5,6,7,8,9,10,11,12,13,14,15,16,17,18,19,20,21,0,1,2,3,4,5,6,7,8,9,10,11,12,13,14,15,16,17,18,19,20,21,0,1,2,3,4,5,6,7,8,9,10,11,12,13,14,15,16,17,18,19,20,21,0,1,2,3,4,5,6,7,8,9,10,11,12,13,14,15,16,17,18,19,20,21,0,1,2,3,4,5,6,7,8,9,10,11,12,13,14,15,16,17,18,19,20,21,0,1,2,3,4,5,6,7,8,9,10,11,12,13,14,15,16,17,18,19,20,21,0,1,2,3,4,5,6,7,8,9,10,11,12,13,14,15,16,17,18,19,20,21,0,1,2,3,4,5,6,7,8,9,10,11,12,13,14,15,16,17,18,19,20,21,0,1,2,3,4,5,6,7,8,9,10,11,12,13,14,15,16,17,18,19,20,21,0,1,2,3,4,5,6,7,8,9,10,11,12,13,14,15,16,17,18,19,20,21,0,1,2,3,4,5,6,7,8,9,10,11,12,13,14,15,16,17,18,19,20,21,0,1,2,3,4,5,6,7,8,9,10,11,12,13,14,15,16,17,18,19,20,21,0,1,2,3,4,5,6,7,8,9,10,11,12,13,14,15,16,17,18,19,20,21,0,1,2,3,4,5,6,7,8,9,10,11,12,13,14,15,16,17,18,19,20,21,0,1,2,3,4,5,6,7,8,9,10,11,12,13,14,15,16,17,18,19,20,21,0,1,2,3,4,5,6,7,8,9,10,11,12,13,14,15,16,17,18,19,20,21,0,1,2,3,4,5,6,7,8,9,10,11,12,13,14,15,16,17,18,19,20,21,0,1,2,3,4,5,6,7,8,9,10,11,12,13,14,15,16,17,18,19,20,21,0,1,2,3,4,5,6,7,8,9,10,11,12,13,14,15,16,17,18,19,20,21,0,1,2,3,4,5,6,7,8,9,10,11,12,13,14,15,16,17,18,19,20,21,0,1,2,3,4,5,6,7,8,9,10,11,12,13,14,15,16,17,18,19,20,21,0,1,2,3,4,5,6,7,8,9,10,11,12,13,14,15,16,17,18,19,20,21,0,1,2,3,4,5,6,7,8,9,10,11,12,13,14,15,16,17,18,19,20,21,0,1,2,3,4,5,6,7,8,9,10,11,12,13,14,15,16,17,18,19,20,21,0,1,2,3,4,5,6,7,8,9,10,11,12,13,14,15,16,17,18,19,20,21,0,1,2,3,4,5,6,7,8,9,10,11,12,13,14,15,16,17,18,19,20,21,0,1,2,3,4,5,6,7,8,9,10,11,12,13,14,15,16,17,18,19,20,21,0,1,2,3,4,5,6,7,8,9,10,11,12,13,14,15,16,17,18,19,20,21,0,1,2,3,4,5,6,7,8,9,10,11,12,13,14,15,16,17,18,19,20,21,0,1,2,3,4,5,6,7,8,9,10,11,12,13,14,15,16,17,18,19,20,21,0,1,2,3,4,5,6,7,8,9,10,11,12,13,14,15,16,17,18,19,20,21,0,1,2,3,4,5,6,7,8,9,10,11,12,13,14,15,16,17,18,19,20,21,0,1,2,3,4,5,6,7,8,9,10,11,12,13,14,15,16,17,18,19,20,21,0,1,2,3,4,5,6,7,8,9,10,11,12,13,14,15,16,17,18,19,20,21,0,1,2,3,4,5,6,7,8,9,10,11,12,13,14,15,16,17,18,19,20,21,0,1,2,3,4,5,6,7,8,9,10,11,12,13,14,15,16,17,18,19,20,21,0,1,2,3,4,5,6,7,8,9,10,11,12,13,14,15,16,17,18,19,20,21,0,1,2,3,4,5,6,7,8,9,10,11,12,13,14,15,16,17,18,19,20,21,0,1,2,3,4,5,6,7,8,9,10,11,12,13,14,15,16,17,18,19,20,21,0,1,2,3,4,5,6,7,8,9,10,11,12,13,14,15,16,17,18,19,20,21,0,1,2,3,4,5,6,7,8,9,10,11,12,13,14,15,16,17,18,19,20,21,0,1,2,3,4,5,6,7,8,9,10,11,12,13,14,15,16,17,18,19,20,21,0,1,2,3,4,5,6,7,8,9,10,11,12,13,14,15,16,17,18,19,20,21,0,1,2,3,4,5,6,7,8,9,10,11,12,13,14,15,16,17,18,19,20,21,0,1,2,3,4,5,6,7,8,9,10,11,12,13,14,15,16,17,18,19,20,21,0,1,2,3,4,5,6,7,8,9,10,11,12,13,14,15,16,17,18,19,20,21,0,1,2,3,4,5,6,7,8,9,10,11,12,13,14,15,16,17,18,19,20,21,0,1,2,3,4,5,6,7,8,9,10,11,12,13,14,15,16,17,18,19,20,21,0,1,2,3,4,5,6,7,8,9,10,11,12,13,14,15,16,17,18,19,20,21,0,1,2,3,4,5,6,7,8,9,10,11,12,13,14,15,16,17,18,19,20,21,0,1,2,3,4,5,6,7,8,9,10,11,12,13,14,15,16,17,18,19,20,21,0,1,2,3,4,5,6,7,8,9,10,11,12,13,14,15,16,17,18,19,20,21,0,1,2,3,4,5,6,7,8,9,10,11,12,13,14,15,16,17,18,19,20,21,0,1,2,3,4,5,6,7,8,9,10,11,12,13,14,15,16,17,18,19,20,21,0,1,2,3,4,5,6,7,8,9,10,11,12,13,14,15,16,17,18,19,20,21,0,1,2,3,4,5,6,7,8,9,10,11,12,13,14,15,16,17,18,19,20,21,0,1,2,3,4,5,6,7,8,9,10,11,12,13,14,15,16,17,18,19,20,21,0,1,2,3,4,5,6,7,8,9,10,11,12,13,14,15,16,17,18,19,20,21,0,1,2,3,4,5,6,7,8,9,10,11,12,13,14,15,16,17,18,19,20,21,0,1,2,3,4,5,6,7,8,9,10,11,12,13,14,15,16,17,18,19,20,21,0,1,2,3,4,5,6,7,8,9,10,11,12,13,14,15,16,17,18,19,20,21,0,1,2,3,4,5,6,7,8,9,10,11,12,13,14,15,16,17,18,19,20,21,0,1,2,3,4,5,6,7,8,9,10,11,12,13,14,15,16,17,18,19,20,21,0,1,2,3,4,5,6,7,8,9,10,11,12,13,14,15,16,17,18,19,20,21,0,1,2,3,4,5,6,7,8,9,10,11,12,13,14,15,16,17,18,19,20,21,0,1,2,3,4,5,6,7,8,9,10,11,12,13,14,15,16,17,18,19,20,21,0,1,2,3,4,5,6,7,8,9,10,11,12,13,14,15,16,17,18,19,20,21,0,1,2,3,4,5,6,7,8,9,10,11,12,13,14,15,16,17,18,19,20,21,0,1,2,3,4,5,6,7,8,9,10,11,12,13,14,15,16,17,18,19,20,21,0,1,2,3,4,5,6,7,8,9,10,11,12,13,14,15,16,17,18,19,20,21,0,1,2,3,4,5,6,7,8,9,10,11,12,13,14,15,16,17,18,19,20,21,0,1,2,3,4,5,6,7,8,9,10,11,12,13,14,15,16,17,18,19,20,21,0,1,2,3,4,5,6,7,8,9,10,11,12,13,14,15,16,17,18,19,20,21,0,1,2,3,4,5,6,7,8,9,10,11,12,13,14,15,16,17,18,19,20,21,0,1,2,3,4,5,6,7,8,9,10,11,12,13,14,15,16,17,18,19,20,21,0,1,2,3,4,5,6,7,8,9,10,11,12,13,14,15,16,17,18,19,20,21,0,1,2,3,4,5,6,7,8,9,10,11,12,13,14,15,16,17,18,19,20,21,0,1,2,3,4,5,6,7,8,9,10,11,12,13,14,15,16,17,18,19,20,21,0,1,2,3,4,5,6,7,8,9,10,11,12,13,14,15,16,17,18,19,20,21,0,1,2,3,4,5,6,7,8,9,10,11,12,13,14,15,16,17,18,19,20,21,0,1,2,3,4,5,6,7,8,9,10,11,12,13,14,15,16,17,18,19,20,21,0,1,2,3,4,5,6,7,8,9,10,11,12,13,14,15,16,17,18,19,20,21,0,1,2,3,4,5,6,7,8,9,10,11,12,13,14,15,16,17,18,19,20,21,0,1,2,3,4,5,6,7,8,9,10,11,12,13,14,15,16,17,18,19,20,21,0,1,2,3,4,5,6,7,8,9,10,11,12,13,14,15,16,17,18,19,20,21,0,1,2,3,4,5,6,7,8,9,10,11,12,13,14,15,16,17,18,19,20,21,0,1,2,3,4,5,6,7,8,9,10,11,12,13,14,15,16,17,18,19,20,21,0,1,2,3,4,5,6,7,8,9,10,11,12,13,14,15,16,17,18,19,20,21,0,1,2,3,4,5,6,7,8,9,10,11,12,13,14,15,16,17,18,19,20,21,0,1,2,3,4,5,6,7,8,9,10,11,12,13,14,15,16,17,18,19,20,21,0,1,2,3,4,5,6,7,8,9,10,11,12,13,14,15,16,17,18,19,20,21,0,1,2,3,4,5,6,7,8,9,10,11,12,13,14,15,16,17,18,19,20,21,0,1,2,3,4,5,6,7,8,9,10,11,12,13,14,15,16,17,18,19,20,21,0,1,2,3,4,5,6,7,8,9,10,11,12,13,14,15,16,17,18,19,20,21,0,1,2,3,4,5,6,7,8,9,10,11,12,13,14,15,16,17,18,19,20,21,0,1,2,3,4,5,6,7,8,9,10,11,12,13,14,15,16,17,18,19,20,21,0,1,2,3,4,5,6,7,8,9,10,11,12,13,14,15,16,17,18,19,20,21,0,1,2,3,4,5,6,7,8,9,10,11,12,13,14,15,16,17,18,19,20,21,0,1,2,3,4,5,6,7,8,9,10,11,12,13,14,15,16,17,18,19,20,21,0,1,2,3,4,5,6,7,8,9,10,11,12,13,14,15,16,17,18,19,20,21,0,1,2,3,4,5,6,7,8,9,10,11,12,13,14,15,16,17,18,19,20,21,0,1,2,3,4,5,6,7,8,9,10,11,12,13,14,15,16,17,18,19,20,21,0,1,2,3,4,5,6,7,8,9,10,11,12,13,14,15,16,17,18,19,20,21,0,1,2,3,4,5,6,7,8,9,10,11,12,13,14,15,16,17,18,19,20,21,0,1,2,3,4,5,6,7,8,9,10,11,12,13,14,15,16,17,18,19,20,21,0,1,2,3,4,5,6,7,8,9,10,11,12,13,14,15,16,17,18,19,20,21,0,1,2,3,4,5,6,7,8,9,10,11,12,13,14,15,16,17,18,19,20,21,0,1,2,3,4,5,6,7,8,9,10,11,12,13,14,15,16,17,18,19,20,21,0,1,2,3,4,5,6,7,8,9,10,11,12,13,14,15,16,17,18,19,20,21,0,1,2,3,4,5,6,7,8,9,10,11,12,13,14,15,16,17,18,19,20,21,0,1,2,3,4,5,6,7,8,9,10,11,12,13,14,15,16,17,18,19,20,21,0,1,2,3,4,5,6,7,8,9,10,11,12,13,14,15,16,17,18,19,20,21,0,1,2,3,4,5,6,7,8,9,10,11,12,13,14,15,16,17,18,19,20,21,0,1,2,3,4,5,6,7,8,9,10,11,12,13,14,15,16,17,18,19,20,21,0,1,2,3,4,5,6,7,8,9,10,11,12,13,14,15,16,17,18,19,20,21,0,1,2,3,4,5,6,7,8,9,10,11,12,13,14,15,16,17,18,19,20,21,0,1,2,3,4,5,6,7,8,9,10,11,12,13,14,15,16,17,18,19,20,21,0,1,2,3,4,5,6,7,8,9,10,11,12,13,14,15,16,17,18,19,20,21,0,1,2,3,4,5,6,7,8,9,10,11,12,13,14,15,16,17,18,19,20,21,0,1,2,3,4,5,6,7,8,9,10,11,12,13,14,15,16,17,18,19,20,21,0,1,2,3,4,5,6,7,8,9,10,11,12,13,14,15,16,17,18,19,20,21,0,1,2,3,4,5,6,7,8,9,10,11,12,13,14,15,16,17,18,19,20,21,0,1,2,3,4,5,6,7,8,9,10,11,12,13,14,15,16,17,18,19,20,21,0,1,2,3,4,5,6,7,8,9,10,11,12,13,14,15,16,17,18,19,20,21,0,1,2,3,4,5,6,7,8,9,10,11,12,13,14,15,16,17,18,19,20,21,0,1,2,3,4,5,6,7,8,9,10,11,12,13,14,15,16,17,18,19,20,21,0,1,2,3,4,5,6,7,8,9,10,11,12,13,14,15,16,17,18,19,20,21,0,1,2,3,4,5,6,7,8,9,10,11,12,13,14,15,16,17,18,19,20,21],"trees":[{"base_weights":[-8.481134E-3,-5.1914662E-2,4.799169E0,-4.428115E-2,9.2990416E-1],"categories":[],"categories_nodes":[],"categories_segments":[],"categories_sizes":[],"default_left":[0,0,0,0,0],"id":0,"left_children":[1,-1,3,-1,-1],"loss_changes":[3.051283E2,0E0,2.856171E2,0E0,0E0],"parents":[2147483647,0,0,2,2],"right_children":[2,-1,4,-1,-1],"split_conditions":[1.2E2,-5.1914662E-2,8.389242E1,-4.428115E-2,9.2990416E-1],"split_indices":[1,0,5,0,0],"split_type":[0,0,0,0,0],"sum_hessian":[1.2226859E2,1.1133471E2,1.0933885E1,5.4669423E0,5.4669423E0],"tree_param":{"num_deleted":"0","num_feature":"34","num_nodes":"5","size_leaf_vector":"1"}},{"base_weights":[-3.5429757E-2,-4.9738222E-1,1.5771204E0,-5.1819187E-2,2.51269E-1,-5.0046053E-2,9.150104E-1,-2.8731344E-2,7.125506E-2],"categories":[],"categories_nodes":[],"categories_segments":[],"categories_sizes":[],"default_left":[0,0,0,0,0,0,0,0,0],"id":1,"left_children":[1,3,5,-1,7,-1,-1,-1,-1],"loss_changes":[9.1575584E1,1.6180172E0,4.3536475E2,0E0,1.0136894E0,0E0,0E0,0E0,0E0],"parents":[2147483647,0,0,1,1,2,2,4,4],"right_children":[2,4,6,-1,8,-1,-1,-1,-1],"split_conditions":[7.2E1,7E1,5.9E1,-5.1819187E-2,2.9E1,-5.0046053E-2,9.150104E-1,-2.8731344E-2,7.125506E-2],"split_indices":[1,1,0,0,0,0,0,0,0],"split_type":[0,0,0,0,0,0,0,0,0],"sum_hessian":[1.20880165E2,9.45E1,2.6380165E1,9.2243805E1,2.2561984E0,2.1433884E1,4.946281E0,1.214876E0,1.0413224E0],"tree_param":{"num_deleted":"0","num_feature":"34","num_nodes":"9","size_leaf_vector":"1"}},{"base_weights":[-1.3570962E-2,8.1006986E-1,-5.1686745E-2,-5.0424453E-2,2.4992893E0,-1.1819194E-1,5.1166935E0,-4.671435E-2,1.03125E-1,7.508944E-1,-3.9406348E-2],"categories":[],"categories_nodes":[],"categories_segments":[],"categories_sizes":[],"default_left":[0,0,0,0,0,0,0,0,0,0,0],"id":2,"left_children":[1,3,-1,-1,5,7,9,-1,-1,-1,-1],"loss_changes":[5.0402782E1,1.03663086E2,0E0,0E0,1.4003125E2,4.9551616E0,1.374049E2,0E0,0E0,0E0,0E0],"parents":[2147483647,0,0,1,1,4,4,5,5,6,6],"right_children":[2,4,-1,-1,6,8,10,-1,-1,-1,-1],"split_conditions":[7.582271E1,5.9870655E1,-5.1686745E-2,-5.0424453E-2,2.79262E1,2.61724E1,6.971184E1,-4.671435E-2,1.03125E-1,7.508944E-1,-3.9406348E-2],"split_indices":[6,6,0,0,14,12,5,0,0,0,0],"split_type":[0,0,0,0,0,0,0,0,0,0,0],"sum_hessian":[1.19578514E2,4.5123966E1,7.4454544E1,2.5772728E1,1.935124E1,1.0152893E1,9.198347E0,8.243802E0,1.9090909E0,6.161157E0,3.0371902E0],"tree_param":{"num_deleted":"0","num_feature":"34","num_nodes":"11","size_leaf_vector":"1"}},{"base_weights":[6.4530164E-2,7.984048E0,-5.020487E-1,-2.8731344E-2,9.445093E-1,7.125506E-2,-5.1925223E-2],"categories":[],"categories_nodes":[],"categories_segments":[],"categories_sizes":[],"default_left":[0,0,0,0,0,0,0],"id":3,"left_children":[1,3,5,-1,-1,-1,-1],"loss_changes":[5.5711835E2,1.0288806E2,2.7934284E0,0E0,0E0,0E0,0E0],"parents":[2147483647,0,0,1,1,2,2],"right_children":[2,4,6,-1,-1,-1,-1],"split_conditions":[1.985389E1,2.6E1,1.876E-1,-2.8731344E-2,9.445093E-1,7.125506E-2,-5.1925223E-2],"split_indices":[5,2,8,0,0,0,0],"split_type":[0,0,0,0,0,0,0],"sum_hessian":[1.2226859E2,7.289256E0,1.1497934E2,1.214876E0,6.0743804E0,1.0413224E0,1.1393802E2],"tree_param":{"num_deleted":"0","num_feature":"34","num_nodes":"7","size_leaf_vector":"1"}},{"base_weights":[1.3034476E-2,-2.2336003E-1,5.811321E0,-5.076478E-1,8.5988736E-1,7.7480406E-1,-2.7766991E-2,1.641791E-2,-5.1818144E-2,-4.972792E-2,5.038615E0,8.215481E-1,-3.629442E-2],"categories":[],"categories_nodes":[],"categories_segments":[],"categories_sizes":[],"default_left":[0,0,0,0,0,0,0,0,0,0,0,0,0],"id":4,"left_children":[1,3,5,7,9,-1,-1,-1,-1,-1,11,-1,-1],"loss_changes":[1.6859499E2,3.6847626E1,5.897061E1,7.523079E-1,1.4400513E2,0E0,0E0,0E0,0E0,0E0,1.094874E2,0E0,0E0],"parents":[2147483647,0,0,1,1,2,2,3,3,4,4,10,10],"right_children":[2,4,6,8,10,-1,-1,-1,-1,-1,12,-1,-1],"split_conditions":[8.58E-1,1.087E0,3.6E1,8E0,1.2667381E2,7.7480406E-1,-2.7766991E-2,1.641791E-2,-5.1818144E-2,-4.972792E-2,3.1E1,8.215481E-1,-3.629442E-2],"split_indices":[8,9,2,1,6,0,0,0,0,0,1,0,0],"split_type":[0,0,0,0,0,0,0,0,0,0,0,0,0],"sum_hessian":[1.2105372E2,1.17235535E2,3.8181818E0,9.3285126E1,2.3950413E1,2.6900826E0,1.1280992E0,1.214876E0,9.207025E1,1.8743801E1,5.2066116E0,2.9504132E0,2.2561984E0],"tree_param":{"num_deleted":"0","num_feature":"34","num_nodes":"13","size_leaf_vector":"1"}},{"base_weights":[-3.129344E-2,-1.7097683E-1,6.706452E-1,-4.966162E-1,7.925072E-1,-5.1781833E-2,-1.2823837E-1,5.056016E-2,6.2341356E-1,-4.2569663E-2,7.125506E-2,-5.0046053E-2,1.729014E-1],"categories":[],"categories_nodes":[],"categories_segments":[],"categories_sizes":[],"default_left":[0,0,0,0,0,0,0,0,0,0,0,0,0],"id":5,"left_children":[1,3,-1,5,7,-1,9,11,-1,-1,-1,-1,-1],"loss_changes":[1.1871275E2,3.9096115E1,0E0,6.584759E-1,1.2704642E2,0E0,1.8990073E0,2.7472307E1,0E0,0E0,0E0,0E0,0E0],"parents":[2147483647,0,0,1,1,3,3,4,4,6,6,7,7],"right_children":[2,4,-1,6,8,-1,10,12,-1,-1,-1,-1,-1],"split_conditions":[1E0,1.223886E2,6.706452E-1,1.1477807E2,9.8E1,-5.1781833E-2,6.7340055E0,8E1,6.2341356E-1,-4.2569663E-2,7.125506E-2,-5.0046053E-2,1.729014E-1],"split_indices":[30,6,0,6,0,0,3,0,0,0,0,0,0],"split_type":[0,0,0,0,0,0,0,0,0,0,0,0,0],"sum_hessian":[1.2391736E2,1.2235537E2,1.5619835E0,9.180992E1,3.0545454E1,8.6429756E1,5.380165E0,2.7768595E1,2.7768595E0,4.338843E0,1.0413224E0,2.1433884E1,6.3347106E0],"tree_param":{"num_deleted":"0","num_feature":"34","num_nodes":"13","size_leaf_vector":"1"}},{"base_weights":[4.3789193E-2,-5.187689E-2,3.028716E0,-4.6767052E-2,5.6617646E0,8.32667E0,-4.0433552E-2,7.125506E-2,9.385688E-1],"categories":[],"categories_nodes":[],"categories_segments":[],"categories_sizes":[],"default_left":[0,0,0,0,0,0,0,0,0],"id":6,"left_children":[1,-1,3,-1,5,7,-1,-1,-1],"loss_changes":[2.0725175E2,0E0,1.8281458E2,0E0,1.8506259E2,5.665393E1,0E0,0E0,0E0],"parents":[2147483647,0,0,2,2,4,4,5,5],"right_children":[2,-1,4,-1,6,8,-1,-1,-1],"split_conditions":[1E2,-5.187689E-2,3.5E1,-4.6767052E-2,6.1E1,5.918E-1,-4.0433552E-2,7.125506E-2,9.385688E-1],"split_indices":[0,0,1,0,1,7,0,0,0],"split_type":[0,0,0,0,0,0,0,0,0],"sum_hessian":[1.214876E2,1.0291736E2,1.8570248E1,8.330579E0,1.023967E1,6.855372E0,3.3842976E0,1.0413224E0,5.8140497E0],"tree_param":{"num_deleted":"0","num_feature":"34","num_nodes":"9","size_leaf_vector":"1"}},{"base_weights":[-2.57577E-2,-5.1916458E-2,4.7076597E0,9.2521334E-1,-4.428115E-2],"categories":[],"categories_nodes":[],"categories_segments":[],"categories_sizes":[],"default_left":[0,0,0,0,0],"id":7,"left_children":[1,-1,3,-1,-1],"loss_changes":[2.9094592E2,0E0,2.793614E2,0E0,0E0],"parents":[2147483647,0,0,2,2],"right_children":[2,-1,4,-1,-1],"split_conditions":[1.2E2,-5.1916458E-2,8.404404E1,9.2521334E-1,-4.428115E-2],"split_indices":[1,0,5,0,0],"split_type":[0,0,0,0,0],"sum_hessian":[1.2252892E2,1.1176859E2,1.076033E1,5.2933884E0,5.4669423E0],"tree_param":{"num_deleted":"0","num_feature":"34","num_nodes":"5","size_leaf_vector":"1"}},{"base_weights":[-1.2635158E-2,-5.1852163E-2,2.053833E0,-4.728807E-2,3.6524978E0,6.4360623E0,-4.4884685E-2,7.7083784E-1,-3.0449828E-2],"categories":[],"categories_nodes":[],"categories_segments":[],"categories_sizes":[],"default_left":[0,0,0,0,0,0,0,0,0],"id":8,"left_children":[1,-1,3,-1,5,7,-1,-1,-1],"loss_changes":[1.2893185E2,0E0,9.9706924E1,0E0,1.7380396E2,7.9390564E1,0E0,0E0,0E0],"parents":[2147483647,0,0,2,2,4,4,5,5],"right_children":[2,-1,4,-1,6,8,-1,-1,-1],"split_conditions":[1.4922203E2,-5.1852163E-2,3.5E1,-4.728807E-2,2.0008827E2,8.9901474E1,-4.4884685E-2,7.7083784E-1,-3.0449828E-2],"split_indices":[6,0,2,0,6,5,0,0,0],"split_type":[0,0,0,0,0,0,0,0,0],"sum_hessian":[1.2131405E2,9.805785E1,2.3256199E1,9.285124E0,1.3971074E1,7.983471E0,5.987603E0,6.5950413E0,1.3884298E0],"tree_param":{"num_deleted":"0","num_feature":"34","num_nodes":"9","size_leaf_vector":"1"}},{"base_weights":[6.727348E-3,5.0419984E0,-5.1010704E-1,9.2990416E-1,-4.3571927E-2,1.92233E-2,-5.1905103E-2],"categories":[],"categories_nodes":[],"categories_segments":[],"categories_sizes":[],"default_left":[0,0,0,0,0,0,0],"id":9,"left_children":[1,3,5,-1,-1,-1,-1],"loss_changes":[3.1907556E2,2.7019534E2,7.983475E-1,0E0,0E0,0E0,0E0],"parents":[2147483647,0,0,1,1,2,2],"right_children":[2,4,6,-1,-1,-1,-1],"split_conditions":[3.015E-1,2.6E1,4.471E-1,9.2990416E-1,-4.3571927E-2,1.92233E-2,-5.1905103E-2],"split_indices":[9,2,9,0,0,0,0],"split_type":[0,0,0,0,0,0,0],"sum_hessian":[1.20619835E2,1.0413223E1,1.1020661E2,5.4669423E0,4.946281E0,1.1280992E0,1.09078514E2],"tree_param":{"num_deleted":"0","num_feature":"34","num_nodes":"7","size_leaf_vector":"1"}},{"base_weights":[-7.1367826E-3,2.0912547E0,-5.184702E-2,-7.22417E-2,8.5136986E-1,-4.9144756E-2,1.7861142E0,-3.1218698E-2,3.3246267E-1],"categories":[],"categories_nodes":[],"categories_segments":[],"categories_sizes":[],"default_left":[0,0,0,0,0,0,0,0,0],"id":10,"left_children":[1,3,-1,5,-1,-1,7,-1,-1],"loss_changes":[1.3092783E2,3.3283032E2,0E0,1.5582846E1,0E0,0E0,1.2950462E1,0E0,0E0],"parents":[2147483647,0,0,1,1,3,3,6,6],"right_children":[2,4,-1,6,-1,-1,8,-1,-1],"split_conditions":[5.521607E1,6E1,-5.184702E-2,5.5E1,8.5136986E-1,-4.9144756E-2,4.605333E1,-3.1218698E-2,3.3246267E-1],"split_indices":[6,1,0,1,0,0,6,0,0],"split_type":[0,0,0,0,0,0,0,0,0],"sum_hessian":[1.200124E2,2.2909092E1,9.710331E1,1.7876034E1,5.0330577E0,1.518595E1,2.6900826E0,1.4752066E0,1.214876E0],"tree_param":{"num_deleted":"0","num_feature":"34","num_nodes":"9","size_leaf_vector":"1"}},{"base_weights":[-3.7507195E-2,-5.1693078E-2,7.358985E-1,4.1751823E0,-4.812421E-1,9.039163E-1,-4.5239437E-2,1.92233E-2,-5.0870087E-2],"categories":[],"categories_nodes":[],"categories_segments":[],"categories_sizes":[],"default_left":[0,0,0,0,0,0,0,0,0],"id":11,"left_children":[1,-1,3,5,7,-1,-1,-1,-1],"loss_changes":[4.576528E1,0E0,1.9981076E2,2.8442163E2,7.597866E-1,0E0,0E0,0E0,0E0],"parents":[2147483647,0,0,2,2,3,3,4,4],"right_children":[2,-1,4,6,8,-1,-1,-1,-1],"split_conditions":[6E1,-5.1693078E-2,6.626E-1,1.0975714E2,7.51464E1,9.039163E-1,-4.5239437E-2,1.92233E-2,-5.0870087E-2],"split_indices":[0,0,8,6,5,0,0,0,0],"split_type":[0,0,0,0,0,0,0,0,0],"sum_hessian":[1.21400826E2,7.514876E1,4.6252068E1,1.1454546E1,3.479752E1,5.119835E0,6.3347106E0,1.1280992E0,3.3669422E1],"tree_param":{"num_deleted":"0","num_feature":"34","num_nodes":"9","size_leaf_vector":"1"}},{"base_weights":[-1.973798E-2,1.8671912E0,-5.184273E-2,6.672305E0,-4.95E-2,8.280899E0,-3.1935483E-2,1.6923076E-1,9.150104E-1],"categories":[],"categories_nodes":[],"categories_segments":[],"categories_sizes":[],"default_left":[0,0,0,0,0,0,0,0,0],"id":12,"left_children":[1,3,-1,5,-1,7,-1,-1,-1],"loss_changes":[1.1581951E2,2.953696E2,0E0,9.879953E1,0E0,2.4532104E1,0E0,0E0,0E0],"parents":[2147483647,0,0,1,1,3,3,5,5],"right_children":[2,4,-1,6,-1,8,-1,-1,-1],"split_conditions":[5.5187923E1,4.1E1,-5.184273E-2,4.1E1,-4.95E-2,4.25578E1,-3.1935483E-2,1.6923076E-1,9.150104E-1],"split_indices":[5,1,0,0,0,21,0,0,0],"split_type":[0,0,0,0,0,0,0,0,0],"sum_hessian":[1.2105372E2,2.4731405E1,9.632231E1,7.549587E0,1.7181818E1,5.987603E0,1.5619835E0,1.0413224E0,4.946281E0],"tree_param":{"num_deleted":"0","num_feature":"34","num_nodes":"9","size_leaf_vector":"1"}},{"base_weights":[-5.6497388E-2,-2.1171297E-1,4.788235E0,3.538874E0,-3.0777842E-1,6.978852E-1,-2.7766991E-2,5.6113356E-1,-2.6720649E-2,2.988633E-1,-5.06753E-1,4.8075745E-1,-3.9219018E-2,-1.5366822E-9,-5.1781833E-2],"categories":[],"categories_nodes":[],"categories_segments":[],"categories_sizes":[],"default_left":[0,0,0,0,0,0,0,0,0,0,0,0,0,0,0],"id":13,"left_children":[1,3,5,7,9,-1,-1,-1,-1,11,13,-1,-1,-1,-1],"loss_changes":[9.35785E1,4.4408783E1,4.4814346E1,2.5815155E1,1.4412747E1,0E0,0E0,0E0,0E0,9.4766045E1,5.009556E-1,0E0,0E0,0E0,0E0],"parents":[2147483647,0,0,1,1,2,2,3,3,4,4,9,9,10,10],"right_children":[2,4,6,8,10,-1,-1,-1,-1,12,14,-1,-1,-1,-1],"split_conditions":[8.016211E0,4.684079E0,2.6E1,7.2850174E1,6.772E-1,6.978852E-1,-2.7766991E-2,5.6113356E-1,-2.6720649E-2,6.3299007E1,5.606E-1,4.8075745E-1,-3.9219018E-2,-1.5366822E-9,-5.1781833E-2],"split_indices":[3,3,2,6,10,0,0,0,0,6,8,0,0,0,0],"split_type":[0,0,0,0,0,0,0,0,0,0,0,0,0,0,0],"sum_hessian":[1.2209504E2,1.1923141E2,2.8636365E0,2.0826447E0,1.1714876E2,1.7355372E0,1.1280992E0,1.0413224E0,1.0413224E0,2.8809917E1,8.8338844E1,3.0371902E0,2.5772728E1,1.9090909E0,8.6429756E1],"tree_param":{"num_deleted":"0","num_feature":"34","num_nodes":"15","size_leaf_vector":"1"}},{"base_weights":[-1.1908812E-2,1.7597343E0,-5.1833954E-2,3.4454353E0,-4.8232984E-2,-4.728807E-2,9.1444093E-1],"categories":[],"categories_nodes":[],"categories_segments":[],"categories_sizes":[],"default_left":[0,0,0,0,0,0,0],"id":14,"left_children":[1,3,-1,5,-1,-1,-1],"loss_changes":[1.10498375E2,1.0514378E2,0E0,3.560738E2,0E0,0E0,0E0],"parents":[2147483647,0,0,1,1,3,3],"right_children":[2,4,-1,6,-1,-1,-1],"split_conditions":[6.0745834E1,2.6E1,-5.1833954E-2,5.83E-1,-4.8232984E-2,-4.728807E-2,9.1444093E-1],"split_indices":[6,2,0,7,0,0,0],"split_type":[0,0,0,0,0,0,0],"sum_hessian":[1.21140495E2,2.6380165E1,9.476033E1,1.4752067E1,1.1628099E1,9.285124E0,5.4669423E0],"tree_param":{"num_deleted":"0","num_feature":"34","num_nodes":"7","size_leaf_vector":"1"}},{"base_weights":[-2.4002172E-2,9.2025656E-1,-5.0241685E-1,6.621359E-2,-5.193267E-2],"categories":[],"categories_nodes":[],"categories_segments":[],"categories_sizes":[],"default_left":[0,0,0,0,0],"id":15,"left_children":[1,-1,3,-1,-1],"loss_changes":[5.479804E2,0E0,2.66708E0,0E0,0E0],"parents":[2147483647,0,0,2,2],"right_children":[2,-1,4,-1,-1],"split_conditions":[2.8985743E1,9.2025656E-1,3.537493E1,6.621359E-2,-5.193267E-2],"split_indices":[6,0,6,0,0],"split_type":[0,0,0,0,0],"sum_hessian":[1.2209504E2,5.119835E0,1.16975204E2,1.1280992E0,1.1584711E2],"tree_param":{"num_deleted":"0","num_feature":"34","num_nodes":"5","size_leaf_vector":"1"}},{"base_weights":[-1.4949946E-3,9.2025656E-1,-4.8497856E-1,3.235294E-1,-5.1913943E-2,1.6923076E-1,-4.019231E-2],"categories":[],"categories_nodes":[],"categories_segments":[],"categories_sizes":[],"default_left":[0,0,0,0,0,0,0],"id":16,"left_children":[1,-1,3,5,-1,-1,-1],"loss_changes":[5.456728E2,0E0,3.3856068E0,5.9815607E0,0E0,0E0,0E0],"parents":[2147483647,0,0,2,2,3,3],"right_children":[2,-1,4,6,-1,-1,-1],"split_conditions":[1.5E1,9.2025656E-1,1.6E1,4.6E1,-5.1913943E-2,1.6923076E-1,-4.019231E-2],"split_indices":[2,0,2,1,0,0,0],"split_type":[0,0,0,0,0,0,0],"sum_hessian":[1.20619835E2,5.119835E0,1.155E2,4.338843E0,1.11161156E2,1.0413224E0,3.2975206E0],"tree_param":{"num_deleted":"0","num_feature":"34","num_nodes":"7","size_leaf_vector":"1"}},{"base_weights":[-1.8300366E-2,-2.2423948E-1,5.9078155E0,-5.1807996E-2,7.376375E-1,7.125506E-2,7.431635E-1,-4.9716208E-2,3.213913E0,8.2753325E-1,-4.428115E-2],"categories":[],"categories_nodes":[],"categories_segments":[],"categories_sizes":[],"default_left":[0,0,0,0,0,0,0,0,0,0,0],"id":17,"left_children":[1,3,5,-1,7,-1,-1,-1,9,-1,-1],"loss_changes":[1.4985783E2,3.389816E1,2.7352585E1,0E0,8.7706314E1,0E0,0E0,0E0,1.7956894E2,0E0,0E0],"parents":[2147483647,0,0,1,1,2,2,4,4,8,8],"right_children":[2,4,6,-1,8,-1,-1,-1,10,-1,-1],"split_conditions":[3.13831E1,9.009878E1,6.5244594E0,-5.1807996E-2,3.1E1,7.125506E-2,7.431635E-1,-4.9716208E-2,7E1,8.2753325E-1,-4.428115E-2],"split_indices":[16,5,3,0,1,0,0,0,1,0,0],"split_type":[0,0,0,0,0,0,0,0,0,0,0],"sum_hessian":[1.2070661E2,1.1758264E2,3.123967E0,9.0421486E1,2.7161158E1,1.0413224E0,2.0826447E0,1.8657024E1,8.504132E0,3.0371902E0,5.4669423E0],"tree_param":{"num_deleted":"0","num_feature":"34","num_nodes":"11","size_leaf_vector":"1"}},{"base_weights":[1.7867181E-2,1.3274643E0,-4.3264982E-1,-2.3672905E-2,4.2750306E0,1.7889273E-1,-4.8555538E-1,-4.8820224E-2,7.112489E-1,6.420461E0,-3.967936E-2,9.181968E-3,-4.9596536E-1,-4.5994963E-2,4.891262E-1,-3.3821378E-2,8.8703996E-1,-5.1765334E-2,-1.3871376E-2],"categories":[],"categories_nodes":[],"categories_segments":[],"categories_sizes":[],"default_left":[0,0,0,0,0,0,0,0,0,0,0,0,0,0,0,0,0,0,0],"id":18,"left_children":[1,3,5,7,9,-1,11,-1,13,15,-1,-1,17,-1,-1,-1,-1,-1,-1],"loss_changes":[7.4121445E1,1.2815224E2,1.1858515E1,8.213373E0,1.0389661E2,0E0,5.991974E-1,0E0,4.792875E1,1.18703186E2,0E0,0E0,6.304836E-1,0E0,0E0,0E0,0E0,0E0,0E0],"parents":[2147483647,0,0,1,1,2,2,3,3,4,4,6,6,8,8,9,9,12,12],"right_children":[2,4,6,8,10,-1,12,-1,14,16,-1,-1,18,-1,-1,-1,-1,-1,-1],"split_conditions":[7.189E-1,5.8647E1,5.505394E0,6.2E1,4E1,1.7889273E-1,4.819E-1,-4.8820224E-2,2.4938963E1,2.344E-1,-3.967936E-2,9.181968E-3,1E0,-4.5994963E-2,4.891262E-1,-3.3821378E-2,8.8703996E-1,-5.1765334E-2,-1.3871376E-2],"split_indices":[9,21,3,1,0,0,7,0,5,8,0,0,27,0,0,0,0,0,0],"split_type":[0,0,0,0,0,0,0,0,0,0,0,0,0,0,0,0,0,0,0],"sum_hessian":[1.2365703E2,3.1152893E1,9.2504135E1,2.2041323E1,9.11157E0,1.3884298E0,9.11157E1,1.3710744E1,8.330579E0,5.987603E0,3.123967E0,1.4752066E0,8.9640495E1,7.2024794E0,1.1280992E0,1.822314E0,4.1652894E0,8.408678E1,5.553719E0],"tree_param":{"num_deleted":"0","num_feature":"34","num_nodes":"19","size_leaf_vector":"1"}},{"base_weights":[-2.3226017E-8,1.3849019E0,-5.070461E-1,4.936006E0,-2.8937218E-1,1.6105402E-3,-5.179292E-2,-4.170177E-2,8.064888E0,1.2190351E0,-4.9932394E-2,9.094488E-1,1.20242916E-1,2.1821861E-1,-2.7766991E-2],"categories":[],"categories_nodes":[],"categories_segments":[],"categories_sizes":[],"default_left":[0,0,0,0,0,0,0,0,0,0,0,0,0,0,0],"id":19,"left_children":[1,3,5,7,9,-1,-1,-1,11,13,-1,-1,-1,-1,-1],"loss_changes":[8.720161E1,1.9930118E2,5.2588654E-1,1.8289563E2,8.070604E0,0E0,0E0,0E0,3.720981E1,5.174817E0,0E0,0E0,0E0,0E0,0E0],"parents":[2147483647,0,0,1,1,2,2,3,3,4,4,8,8,9,9],"right_children":[2,4,6,8,10,-1,-1,-1,12,14,-1,-1,-1,-1,-1],"split_conditions":[3E1,2.58844E1,3.1E1,3.5E1,2.4982874E1,1.6105402E-3,-5.179292E-2,-4.170177E-2,4E1,9E1,-4.9932394E-2,9.094488E-1,1.20242916E-1,2.1821861E-1,-2.7766991E-2],"split_indices":[1,17,1,2,4,0,0,0,0,0,0,0,0,0,0],"split_type":[0,0,0,0,0,0,0,0,0,0,0,0,0,0,0],"sum_hessian":[1.22181816E2,3.228099E1,8.9900826E1,9.719008E0,2.2561983E1,1.822314E0,8.8078514E1,3.9049587E0,5.8140497E0,2.1694214E0,2.0392563E1,4.7727275E0,1.0413224E0,1.0413224E0,1.1280992E0],"tree_param":{"num_deleted":"0","num_feature":"34","num_nodes":"15","size_leaf_vector":"1"}},{"base_weights":[-5.3348415E-2,-3.6951885E-1,7.066563E0,-5.1909197E-2,1.3239901E0,8.440385E-1,7.125506E-2,2.8449874E0,-1.1141123E-1,-3.2605305E-2,4.5507613E-1,7.125506E-2,-4.2066723E-2],"categories":[],"categories_nodes":[],"categories_segments":[],"categories_sizes":[],"default_left":[0,0,0,0,0,0,0,0,0,0,0,0,0],"id":20,"left_children":[1,3,5,-1,7,-1,-1,9,11,-1,-1,-1,-1],"loss_changes":[2.8264133E2,3.1098331E1,4.0590027E1,0E0,2.2203505E1,0E0,0E0,2.8015099E1,1.8591733E0,0E0,0E0,0E0,0E0],"parents":[2147483647,0,0,1,1,2,2,4,4,7,7,8,8],"right_children":[2,4,6,-1,8,-1,-1,10,12,-1,-1,-1,-1],"split_conditions":[4.38972E1,1.8244824E2,6.826E-1,-5.1909197E-2,3.32456E1,8.440385E-1,7.125506E-2,8.0031E1,2.21977E1,-3.2605305E-2,4.5507613E-1,7.125506E-2,-4.2066723E-2],"split_indices":[22,6,7,0,13,0,0,5,18,0,0,0,0],"split_type":[0,0,0,0,0,0,0,0,0,0,0,0,0],"sum_hessian":[1.233967E2,1.1905785E2,4.338843E0,1.1003306E2,9.024794E0,3.2975206E0,1.0413224E0,3.9049587E0,5.119835E0,1.6487603E0,2.2561984E0,1.0413224E0,4.078512E0],"tree_param":{"num_deleted":"0","num_feature":"34","num_nodes":"13","size_leaf_vector":"1"}},{"base_weights":[3.9796304E-2,2.023467E0,-5.184129E-2,-4.9091857E-2,5.097561E0,9.425783E-1,-4.4170987E-2],"categories":[],"categories_nodes":[],"categories_segments":[],"categories_sizes":[],"default_left":[0,0,0,0,0,0,0],"id":21,"left_children":[1,3,-1,-1,5,-1,-1],"loss_changes":[1.3764081E2,2.1346559E2,0E0,0E0,3.0068317E2,0E0,0E0],"parents":[2147483647,0,0,1,1,4,4],"right_children":[2,4,-1,-1,6,-1,-1],"split_conditions":[5.9870655E1,6.9E1,-5.184129E-2,-4.9091857E-2,2.7022692E1,9.425783E-1,-4.4170987E-2],"split_indices":[6,0,0,0,4,0,0],"split_type":[0,0,0,0,0,0,0],"sum_hessian":[1.2235537E2,2.6293388E1,9.606198E1,1.492562E1,1.1367768E1,5.987603E0,5.380165E0],"tree_param":{"num_deleted":"0","num_feature":"34","num_nodes":"7","size_leaf_vector":"1"}},{"base_weights":[-3.8325004E-2,-5.1726133E-2,2.722581E0,-4.416059E-2,4.0913033E-1],"categories":[],"categories_nodes":[],"categories_segments":[],"categories_sizes":[],"default_left":[0,0,0,0,0],"id":22,"left_children":[1,-1,3,-1,-1],"loss_changes":[1.6270421E2,0E0,8.059363E1,0E0,0E0],"parents":[2147483647,0,0,2,2],"right_children":[2,-1,4,-1,-1],"split_conditions":[1.2E2,-5.1726133E-2,8.404404E1,-4.416059E-2,4.0913033E-1],"split_indices":[1,0,5,0,0],"split_type":[0,0,0,0,0],"sum_hessian":[1.2098151E2,1.0378969E2,1.7191824E1,5.3956423E0,1.1796182E1],"tree_param":{"num_deleted":"0","num_feature":"34","num_nodes":"5","size_leaf_vector":"1"}},{"base_weights":[-5.090004E-2,-5.1646233E-2,1.1912384E0,-4.296822E-1,2.5692594E0,2.2974886E-2,-4.883398E-2,-4.3659743E-2,3.7446258E0,-3.14936E-2,4.288798E-1],"categories":[],"categories_nodes":[],"categories_segments":[],"categories_sizes":[],"default_left":[0,0,0,0,0,0,0,0,0,0,0],"id":23,"left_children":[1,-1,3,5,7,-1,-1,-1,9,-1,-1],"loss_changes":[7.189178E1,0E0,7.683501E1,7.4794674E-1,6.6883896E1,0E0,0E0,0E0,3.0911407E1,0E0,0E0],"parents":[2147483647,0,0,2,2,3,3,4,4,8,8],"right_children":[2,-1,4,6,8,-1,-1,-1,10,-1,-1],"split_conditions":[7E1,-5.1646233E-2,2.00245E1,1.48E2,7.582271E1,2.2974886E-2,-4.883398E-2,-4.3659743E-2,5.531E-1,-3.14936E-2,4.288798E-1],"split_indices":[1,0,11,23,6,0,0,0,7,0,0],"split_type":[0,0,0,0,0,0,0,0,0,0,0],"sum_hessian":[1.222534E2,8.934898E1,3.290442E1,1.5435886E1,1.7468533E1,1.0226334E0,1.4413253E1,5.087194E0,1.2381338E1,1.5132968E0,1.0868042E1],"tree_param":{"num_deleted":"0","num_feature":"34","num_nodes":"11","size_leaf_vector":"1"}},{"base_weights":[4.2256154E-2,8.1065464E-1,-5.1504906E-2,-5.023771E-2,2.0487924E0,3.0883949E0,-4.6354856E-2,-4.3595318E-2,4.1745892E-1],"categories":[],"categories_nodes":[],"categories_segments":[],"categories_sizes":[],"default_left":[0,0,0,0,0,0,0,0,0],"id":24,"left_children":[1,3,-1,-1,5,7,-1,-1,-1],"loss_changes":[5.359162E1,8.652249E1,0E0,0E0,7.2637825E1,7.613893E1,0E0,0E0,0E0],"parents":[2147483647,0,0,1,1,4,4,5,5],"right_children":[2,4,-1,-1,6,8,-1,-1,-1],"split_conditions":[7.4915596E1,6.0745834E1,-5.1504906E-2,-5.023771E-2,7.095706E1,5.9966694E1,-4.6354856E-2,-4.3595318E-2,4.1745892E-1],"split_indices":[6,6,0,0,5,5,0,0,0],"split_type":[0,0,0,0,0,0,0,0,0],"sum_hessian":[1.231711E2,5.1588108E1,7.158299E1,2.5325226E1,2.6262882E1,1.8413935E1,7.8489466E0,4.479159E0,1.3934776E1],"tree_param":{"num_deleted":"0","num_feature":"34","num_nodes":"9","size_leaf_vector":"1"}},{"base_weights":[1.720842E-2,3.7231321E0,-5.1753998E-2,-3.216922E-2,4.1938588E-1],"categories":[],"categories_nodes":[],"categories_segments":[],"categories_sizes":[],"default_left":[0,0,0,0,0],"id":25,"left_children":[1,3,-1,-1,-1],"loss_changes":[2.5161389E2,3.1832062E1,0E0,0E0,0E0],"parents":[2147483647,0,0,1,1],"right_children":[2,4,-1,-1,-1],"split_conditions":[2.0396597E1,2.5E1,-5.1753998E-2,-3.216922E-2,4.1938588E-1],"split_indices":[5,2,0,0,0],"split_type":[0,0,0,0,0],"sum_hessian":[1.2499404E2,1.5009881E1,1.0998416E2,1.5977196E0,1.3412162E1],"tree_param":{"num_deleted":"0","num_feature":"34","num_nodes":"5","size_leaf_vector":"1"}},{"base_weights":[1.7155277E-2,-2.4720648E-1,3.8519561E0,-5.1629115E-2,6.1140466E-1,6.833311E-2,4.2581287E-1,-4.9573507E-2,2.9625587E0,4.2360398E-1,-3.6921535E-2],"categories":[],"categories_nodes":[],"categories_segments":[],"categories_sizes":[],"default_left":[0,0,0,0,0,0,0,0,0,0,0],"id":26,"left_children":[1,3,5,-1,7,-1,-1,-1,9,-1,-1],"loss_changes":[1.23364365E2,2.663131E1,7.190216E0,0E0,7.340756E1,0E0,0E0,0E0,3.971177E1,0E0,0E0],"parents":[2147483647,0,0,1,1,2,2,4,4,8,8],"right_children":[2,4,6,-1,8,-1,-1,-1,10,-1,-1],"split_conditions":[9.479999E1,1.3037971E2,1.3277483E2,-5.1629115E-2,8.9901474E1,6.833311E-2,4.2581287E-1,-4.9573507E-2,3.6E1,4.2360398E-1,-3.6921535E-2],"split_indices":[5,6,6,0,5,0,0,0,2,0,0],"split_type":[0,0,0,0,0,0,0,0,0,0,0],"sum_hessian":[1.1974886E2,1.1290127E2,6.8476E0,8.626493E1,2.6636332E1,1.0828054E0,5.7647943E0,1.8645477E1,7.9908543E0,5.5848055E0,2.4060485E0],"tree_param":{"num_deleted":"0","num_feature":"34","num_nodes":"11","size_leaf_vector":"1"}},{"base_weights":[3.4369347E-3,-1.5496533E-1,4.35275E-1,-5.0495243E-1,7.662185E-1,-5.1619362E-2,7.2890385E-3,2.8512225E0,-5.0100572E-2,5.7032365E-1,-4.4658065E-2],"categories":[],"categories_nodes":[],"categories_segments":[],"categories_sizes":[],"default_left":[0,0,0,0,0,0,0,0,0,0,0],"id":27,"left_children":[1,3,-1,5,7,-1,-1,9,-1,-1,-1],"loss_changes":[8.6193855E1,3.931222E1,0E0,6.09869E-1,9.0307915E1,0E0,0E0,1.235543E2,0E0,0E0,0E0],"parents":[2147483647,0,0,1,1,3,3,4,4,7,7],"right_children":[2,4,-1,6,8,-1,-1,10,-1,-1,-1],"split_conditions":[1E0,1.2045093E2,4.35275E-1,1.43327E1,5.569E-1,-5.1619362E-2,7.2890385E-3,4.1E1,-5.0100572E-2,5.7032365E-1,-4.4658065E-2],"split_indices":[30,6,0,19,7,0,0,1,0,0,0],"split_type":[0,0,0,0,0,0,0,0,0,0,0],"sum_hessian":[1.2313156E2,1.1973517E2,3.3963923E0,8.709634E1,3.2638832E1,8.553897E1,1.5573629E0,1.1865755E1,2.0773077E1,5.971802E0,5.8939533E0],"tree_param":{"num_deleted":"0","num_feature":"34","num_nodes":"11","size_leaf_vector":"1"}},{"base_weights":[-7.975762E-3,-5.1692694E-2,1.9797336E0,-4.6183523E-2,3.0669782E0,3.906072E0,-1.9166625E-1,4.114742E-1,1.0169971E-1,2.2819465E-2,-3.7679624E-2],"categories":[],"categories_nodes":[],"categories_segments":[],"categories_sizes":[],"default_left":[0,0,0,0,0,0,0,0,0,0,0],"id":28,"left_children":[1,-1,3,-1,5,7,9,-1,-1,-1,-1],"loss_changes":[1.2495168E2,0E0,6.825703E1,0E0,4.8742157E1,4.2583466E0,4.3944824E-1,0E0,0E0,0E0,0E0],"parents":[2147483647,0,0,2,2,4,4,5,5,6,6],"right_children":[2,-1,4,-1,6,8,10,-1,-1,-1,-1],"split_conditions":[1E2,-5.1692694E-2,3.5E1,-4.6183523E-2,5.001E1,2.19605E1,4.5E1,4.114742E-1,1.0169971E-1,2.2819465E-2,-3.7679624E-2],"split_indices":[0,0,1,0,21,18,23,0,0,0,0],"split_type":[0,0,0,0,0,0,0,0,0,0,0],"sum_hessian":[1.21501526E2,9.7322205E1,2.4179323E1,7.626997E0,1.6552326E1,1.300491E1,3.5474157E0,1.17332115E1,1.2716987E0,1.0143431E0,2.5330727E0],"tree_param":{"num_deleted":"0","num_feature":"34","num_nodes":"11","size_leaf_vector":"1"}},{"base_weights":[4.2582553E-2,-5.172434E-2,2.9532392E0,4.167657E-1,-4.3814506E-2],"categories":[],"categories_nodes":[],"categories_segments":[],"categories_sizes":[],"default_left":[0,0,0,0,0],"id":29,"left_children":[1,-1,3,-1,-1],"loss_changes":[2.0334387E2,0E0,8.472485E1,0E0,0E0],"parents":[2147483647,0,0,2,2],"right_children":[2,-1,4,-1,-1],"split_conditions":[1.2E2,-5.172434E-2,7.4915596E1,4.167657E-1,-4.3814506E-2],"split_indices":[1,0,6,0,0],"split_type":[0,0,0,0,0],"sum_hessian":[1.22854645E2,1.03726524E2,1.9128119E1,1.391604E1,5.2120776E0],"tree_param":{"num_deleted":"0","num_feature":"34","num_nodes":"5","size_leaf_vector":"1"}},{"base_weights":[1.091617E-2,-5.1656403E-2,1.5284454E0,-4.743403E-2,2.4295819E0,3.4299655E0,-4.440374E-2,3.777004E-1,-3.0440658E-2],"categories":[],"categories_nodes":[],"categories_segments":[],"categories_sizes":[],"default_left":[0,0,0,0,0,0,0,0,0],"id":30,"left_children":[1,-1,3,-1,5,7,-1,-1,-1],"loss_changes":[9.9986435E1,0E0,5.9297028E1,0E0,6.58674E1,2.2815155E1,0E0,0E0,0E0],"parents":[2147483647,0,0,2,2,4,4,5,5],"right_children":[2,-1,4,-1,6,8,-1,-1,-1],"split_conditions":[1.4922203E2,-5.1656403E-2,3.5E1,-4.743403E-2,2.0008827E2,2.86329E1,-4.440374E-2,3.777004E-1,-3.0440658E-2],"split_indices":[6,0,2,0,6,14,0,0,0],"split_type":[0,0,0,0,0,0,0,0,0],"sum_hessian":[1.22923836E2,9.17069E1,3.1216934E1,9.834119E0,2.1382816E1,1.5717523E1,5.665293E0,1.4370631E1,1.3468908E0],"tree_param":{"num_deleted":"0","num_feature":"34","num_nodes":"9","size_leaf_vector":"1"}},{"base_weights":[4.9684746E-3,2.8723633E0,-5.173513E-2,4.1182494E-1,-4.382851E-2],"categories":[],"categories_nodes":[],"categories_segments":[],"categories_sizes":[],"default_left":[0,0,0,0,0],"id":31,"left_children":[1,3,-1,-1,-1],"loss_changes":[1.8896819E2,8.199559E1,0E0,0E0,0E0],"parents":[2147483647,0,0,1,1],"right_children":[2,4,-1,-1,-1],"split_conditions":[3.413308E1,5.986442E0,-5.173513E-2,4.1182494E-1,-4.382851E-2],"split_indices":[5,3,0,0,0],"split_type":[0,0,0,0,0],"sum_hessian":[1.2418031E2,1.8441607E1,1.0573871E2,1.3221907E1,5.2197E0],"tree_param":{"num_deleted":"0","num_feature":"34","num_nodes":"5","size_leaf_vector":"1"}},{"base_weights":[3.1073153E-4,1.6687543E0,-5.1669057E-2,-4.87853E-2,3.7308483E0,4.3917327E0,-3.6089387E-2,6.385435E-2,4.704321E-1],"categories":[],"categories_nodes":[],"categories_segments":[],"categories_sizes":[],"default_left":[0,0,0,0,0,0,0,0,0],"id":32,"left_children":[1,3,-1,-1,5,7,-1,-1,-1],"loss_changes":[1.06689514E2,1.3194165E2,0E0,0E0,4.2345566E1,1.2310013E1,0E0,0E0,0E0],"parents":[2147483647,0,0,1,1,4,4,5,5],"right_children":[2,4,-1,-1,6,8,-1,-1,-1],"split_conditions":[5.521607E1,5.5E1,-5.1669057E-2,-4.87853E-2,6.971184E1,6.0396473E1,-3.6089387E-2,6.385435E-2,4.704321E-1],"split_indices":[6,1,0,0,5,5,0,0,0],"split_type":[0,0,0,0,0,0,0,0,0],"sum_hessian":[1.2168586E2,2.8259691E1,9.342617E1,1.4186446E1,1.4073244E1,1.2053144E1,2.0200999E0,1.1606145E0,1.089253E1],"tree_param":{"num_deleted":"0","num_feature":"34","num_nodes":"9","size_leaf_vector":"1"}},{"base_weights":[8.476312E-3,-5.152109E-2,7.71313E-1,2.8901644E0,-5.0654866E-2,4.2194062E-1,-2.9379585E-1,-4.293047E-2,2.3211598E-2],"categories":[],"categories_nodes":[],"categories_segments":[],"categories_sizes":[],"default_left":[0,0,0,0,0,0,0,0,0],"id":33,"left_children":[1,-1,3,5,-1,-1,7,-1,-1],"loss_changes":[5.008502E1,0E0,1.396312E2,8.3119644E1,0E0,0E0,5.7234967E-1,0E0,0E0],"parents":[2147483647,0,0,2,2,3,3,6,6],"right_children":[2,-1,4,6,-1,-1,8,-1,-1],"split_conditions":[6E1,-5.152109E-2,2.6E1,1E2,-5.0654866E-2,4.2194062E-1,2.67714E1,-4.293047E-2,2.3211598E-2],"split_indices":[0,0,2,0,0,0,12,0,0],"split_type":[0,0,0,0,0,0,0,0,0],"sum_hessian":[1.2337835E2,7.334894E1,5.002941E1,1.8346668E1,3.1682745E1,1.2713726E1,5.632941E0,4.62495E0,1.0079911E0],"tree_param":{"num_deleted":"0","num_feature":"34","num_nodes":"9","size_leaf_vector":"1"}},{"base_weights":[-1.5351639E-2,1.4571257E0,-5.165539E-2,3.6515563E0,-4.36886E-1,4.140443E0,-3.1679254E-2,1.9775903E-2,-4.909032E-2,1.2283684E-1,4.2798343E-1],"categories":[],"categories_nodes":[],"categories_segments":[],"categories_sizes":[],"default_left":[0,0,0,0,0,0,0,0,0,0,0],"id":34,"left_children":[1,3,-1,5,7,9,-1,-1,-1,-1,-1],"loss_changes":[9.110845E1,1.3190472E2,0E0,2.9697205E1,7.0459557E-1,5.9295654E-2,0E0,0E0,0E0,0E0,0E0],"parents":[2147483647,0,0,1,1,3,3,4,4,5,5],"right_children":[2,4,-1,6,8,10,-1,-1,-1,-1,-1],"split_conditions":[6.624E-1,3.9E1,-5.165539E-2,4.1E1,5E0,8.979946E1,-3.1679254E-2,1.9775903E-2,-4.909032E-2,1.2283684E-1,4.2798343E-1],"split_indices":[9,1,0,0,0,6,0,0,0,0,0],"split_type":[0,0,0,0,0,0,0,0,0,0,0],"sum_hessian":[1.2143182E2,3.0352436E1,9.1079384E1,1.3631187E1,1.6721249E1,1.2097457E1,1.5337305E0,1.1028521E0,1.5618396E1,1.000845E0,1.1096612E1],"tree_param":{"num_deleted":"0","num_feature":"34","num_nodes":"11","size_leaf_vector":"1"}},{"base_weights":[2.9392514E-2,-1.6416004E-1,3.6126003E0,3.1220648E0,-2.7585694E-1,4.525659E-1,-2.8007453E-2,4.1071072E-1,2.1488031E-2,4.200884E-1,-5.0483733E-1,3.6444494E-1,-4.584886E-2,4.463154E-3,-5.16128E-2],"categories":[],"categories_nodes":[],"categories_segments":[],"categories_sizes":[],"default_left":[0,0,0,0,0,0,0,0,0,0,0,0,0,0,0],"id":35,"left_children":[1,3,5,7,9,-1,-1,-1,-1,11,13,-1,-1,-1,-1],"loss_changes":[8.643632E1,4.4317223E1,2.3967606E1,1.0494598E1,1.860453E1,0E0,0E0,0E0,0E0,8.416049E1,5.6461716E-1,0E0,0E0,0E0,0E0],"parents":[2147483647,0,0,1,1,2,2,3,3,4,4,9,9,10,10],"right_children":[2,4,6,8,10,-1,-1,-1,-1,12,14,-1,-1,-1,-1],"split_conditions":[8.016211E0,4.684079E0,2.6E1,1.19823E1,6.1613674E1,4.525659E-1,-2.8007453E-2,4.1071072E-1,2.1488031E-2,3.18272E1,5.606E-1,3.6444494E-1,-4.584886E-2,4.463154E-3,-5.16128E-2],"split_indices":[3,3,2,20,5,0,0,0,0,21,8,0,0,0,0],"split_type":[0,0,0,0,0,0,0,0,0,0,0,0,0,0,0],"sum_hessian":[1.227757E2,1.1738894E2,5.3867607E0,2.9728801E0,1.1441606E2,4.231596E0,1.1551645E0,1.9122185E0,1.0606616E0,2.8118935E1,8.629713E1,5.34709E0,2.2771845E1,1.6781012E0,8.4619026E1],"tree_param":{"num_deleted":"0","num_feature":"34","num_nodes":"15","size_leaf_vector":"1"}},{"base_weights":[4.3090127E-2,1.4792875E0,-5.1640995E-2,2.415181E0,-4.796217E-2,-4.6960052E-2,4.154422E-1],"categories":[],"categories_nodes":[],"categories_segments":[],"categories_sizes":[],"default_left":[0,0,0,0,0,0,0],"id":36,"left_children":[1,3,-1,5,-1,-1,-1],"loss_changes":[1.0020559E2,6.5239075E1,0E0,1.2145593E2,0E0,0E0,0E0],"parents":[2147483647,0,0,1,1,3,3],"right_children":[2,4,-1,6,-1,-1,-1],"split_conditions":[6.0745834E1,4.1E1,-5.1640995E-2,6.971184E1,-4.796217E-2,-4.6960052E-2,4.154422E-1],"split_indices":[6,0,0,5,0,0,0],"split_type":[0,0,0,0,0,0,0],"sum_hessian":[1.2275255E2,3.395318E1,8.879937E1,2.2818455E1,1.1134723E1,8.857316E0,1.3961139E1],"tree_param":{"num_deleted":"0","num_feature":"34","num_nodes":"7","size_leaf_vector":"1"}},{"base_weights":[-1.4014215E-2,2.832728E0,-5.080153E-1,-4.4133406E-2,4.2221338E-1,1.9143283E-2,-5.1726677E-2],"categories":[],"categories_nodes":[],"categories_segments":[],"categories_sizes":[],"default_left":[0,0,0,0,0,0,0],"id":37,"left_children":[1,3,5,-1,-1,-1,-1],"loss_changes":[1.7586223E2,8.5986404E1,7.8842354E-1,0E0,0E0,0E0,0E0],"parents":[2147483647,0,0,1,1,2,2],"right_children":[2,4,6,-1,-1,-1,-1],"split_conditions":[8.1373E0,8.9901474E1,6.1767E0,-4.4133406E-2,4.2221338E-1,1.9143283E-2,-5.1726677E-2],"split_indices":[22,5,20,0,0,0,0],"split_type":[0,0,0,0,0,0,0],"sum_hessian":[1.230304E2,1.7492641E1,1.0553776E2,5.414951E0,1.207769E1,1.1206445E0,1.04417114E2],"tree_param":{"num_deleted":"0","num_feature":"34","num_nodes":"7","size_leaf_vector":"1"}},{"base_weights":[-4.6791434E-2,4.097057E-1,-4.7286093E-1,4.9276784E-1,-5.1736075E-2,-4.0477466E-2,2.2048251E-1],"categories":[],"categories_nodes":[],"categories_segments":[],"categories_sizes":[],"default_left":[0,0,0,0,0,0,0],"id":38,"left_children":[1,-1,3,5,-1,-1,-1],"loss_changes":[2.176542E2,0E0,5.054083E0,9.239983E0,0E0,0E0,0E0],"parents":[2147483647,0,0,2,2,3,3],"right_children":[2,-1,4,6,-1,-1,-1],"split_conditions":[1.5E1,4.097057E-1,1.6E1,4.82841E1,-5.1736075E-2,-4.0477466E-2,2.2048251E-1],"split_indices":[2,0,2,21,0,0,0],"split_type":[0,0,0,0,0,0,0],"sum_hessian":[1.211799E2,1.0494735E1,1.10685165E2,4.4323077E0,1.0625286E2,3.408817E0,1.0234909E0],"tree_param":{"num_deleted":"0","num_feature":"34","num_nodes":"7","size_leaf_vector":"1"}},{"base_weights":[-1.5337569E-2,-3.338274E-1,2.2056997E0,-5.0311786E-1,2.2549331E-1,-4.4946685E-2,4.1446714E0,-5.1552724E-2,1.3147301E-2,-4.912516E-2,1.5739688E0,6.783351E-2,4.5560294E-1,3.7556812E-1,-4.2688705E-2],"categories":[],"categories_nodes":[],"categories_segments":[],"categories_sizes":[],"default_left":[0,0,0,0,0,0,0,0,0,0,0,0,0,0,0],"id":39,"left_children":[1,3,5,7,9,-1,11,-1,-1,-1,13,-1,-1,-1,-1],"loss_changes":[8.332518E1,9.864352E0,7.79231E1,6.927452E-1,2.4566359E1,0E0,9.224106E0,0E0,0E0,0E0,3.993705E1,0E0,0E0,0E0,0E0],"parents":[2147483647,0,0,1,1,2,2,3,3,4,4,6,6,10,10],"right_children":[2,4,6,8,10,-1,12,-1,-1,-1,14,-1,-1,-1,-1],"split_conditions":[2.67197E1,1.0855E0,8.063E-1,4.424887E0,3.1E1,-4.4946685E-2,3.5E1,-5.1552724E-2,1.3147301E-2,-4.912516E-2,7E1,6.783351E-2,4.5560294E-1,3.7556812E-1,-4.2688705E-2],"split_indices":[18,9,8,24,1,0,0,0,0,0,1,0,0,0,0],"split_type":[0,0,0,0,0,0,0,0,0,0,0,0,0,0,0],"sum_hessian":[1.1575355E2,1.01979675E2,1.377387E1,7.836217E1,2.361751E1,6.137528E0,7.636343E0,7.704321E1,1.3189539E0,1.5836013E1,7.7814975E0,1.0911027E0,6.54524E0,3.3029535E0,4.4785438E0],"tree_param":{"num_deleted":"0","num_feature":"34","num_nodes":"15","size_leaf_vector":"1"}},{"base_weights":[-2.2784647E-2,1.0381343E0,-4.363229E-1,-1.243533E-1,2.3219073E0,9.890853E-2,-4.6976086E-1,-3.710807E-1,1.1752145E0,-4.0499713E-2,3.08437E0,-1.8345302E-1,-5.151676E-2,-4.8559237E-2,1.9865833E-2,-2.6879875E-2,1.9990727E-1,-3.927481E-2,4.2014843E-1,-3.9911296E-2,1.2346621E-1],"categories":[],"categories_nodes":[],"categories_segments":[],"categories_sizes":[],"default_left":[0,0,0,0,0,0,0,0,0,0,0,0,0,0,0,0,0,0,0,0,0],"id":40,"left_children":[1,3,5,7,9,-1,11,13,15,-1,17,19,-1,-1,-1,-1,-1,-1,-1,-1,-1],"loss_changes":[5.3309715E1,5.11573E1,4.629917E0,6.4759846E0,3.5032906E1,0E0,1.0243721E0,1.1789193E0,4.398543E0,0E0,5.142514E1,4.57076E0,0E0,0E0,0E0,0E0,0E0,0E0,0E0,0E0,0E0],"parents":[2147483647,0,0,1,1,2,2,3,3,4,4,6,6,7,7,8,8,10,10,11,11],"right_children":[2,4,6,8,10,-1,12,14,16,-1,18,20,-1,-1,-1,-1,-1,-1,-1,-1,-1],"split_conditions":[7.189E-1,1.00216064E2,5.316876E0,1.99779E1,5.4E1,9.890853E-2,7.344E-1,7.4E1,5.9E1,-4.0499713E-2,2.982E-1,5.37E-1,-5.151676E-2,-4.8559237E-2,1.9865833E-2,-2.6879875E-2,1.9990727E-1,-3.927481E-2,4.2014843E-1,-3.9911296E-2,1.2346621E-1],"split_indices":[9,6,3,20,1,0,10,1,1,0,10,7,0,0,0,0,0,0,0,0,0],"split_type":[0,0,0,0,0,0,0,0,0,0,0,0,0,0,0,0,0,0,0,0,0],"sum_hessian":[1.1947656E2,3.3085754E1,8.639081E1,1.7837027E1,1.524873E1,1.3250772E0,8.506573E1,1.5591404E1,2.2456229E0,3.434449E0,1.18142805E1,1.2334147E1,7.273158E1,1.3105106E1,2.4862978E0,1.0605248E0,1.1850979E0,3.0303802E0,8.7839E0,1.1329738E1,1.0044096E0],"tree_param":{"num_deleted":"0","num_feature":"34","num_nodes":"21","size_leaf_vector":"1"}},{"base_weights":[-3.7318838E-3,1.0819833E0,-5.04108E-1,2.7887666E0,-4.5076755E-1,9.520823E-3,-5.1588304E-2,3.2709074E0,-3.66612E-2,2.249295E-2,-4.964834E-2,-3.4134697E-2,3.7672684E-1],"categories":[],"categories_nodes":[],"categories_segments":[],"categories_sizes":[],"default_left":[0,0,0,0,0,0,0,0,0,0,0,0,0],"id":41,"left_children":[1,3,5,7,9,-1,-1,11,-1,-1,-1,-1,-1],"loss_changes":[6.664454E1,1.02504196E2,6.4167213E-1,2.9268661E1,7.681298E-1,0E0,0E0,3.01633E1,0E0,0E0,0E0,0E0,0E0],"parents":[2147483647,0,0,1,1,2,2,3,3,4,4,7,7],"right_children":[2,4,6,8,10,-1,-1,12,-1,-1,-1,-1,-1],"split_conditions":[3E1,3.26757E1,3.1E1,1.1267383E2,2.61029E1,9.520823E-3,-5.1588304E-2,1.01595276E2,-3.66612E-2,2.249295E-2,-4.964834E-2,-3.4134697E-2,3.7672684E-1],"split_indices":[1,13,1,6,12,0,0,6,0,0,0,0,0],"split_type":[0,0,0,0,0,0,0,0,0,0,0,0,0],"sum_hessian":[1.2066986E2,3.7701935E1,8.2967926E1,1.7450552E1,2.0251383E1,1.4621638E0,8.150577E1,1.5105781E1,2.3447723E0,1.0349073E0,1.9216476E1,1.8626547E0,1.3243126E1],"tree_param":{"num_deleted":"0","num_feature":"34","num_nodes":"13","size_leaf_vector":"1"}},{"base_weights":[-3.0114928E-3,-4.798546E-1,3.0702155E0,-5.171561E-2,4.8736903E-1,4.158647E0,-4.1635174E-2,-3.470254E-2,1.2848327E-1,-3.3530265E-2,4.9268708E-1],"categories":[],"categories_nodes":[],"categories_segments":[],"categories_sizes":[],"default_left":[0,0,0,0,0,0,0,0,0,0,0],"id":42,"left_children":[1,3,5,-1,7,9,-1,-1,-1,-1,-1],"loss_changes":[1.7984373E2,4.0848217E0,6.428708E1,0E0,3.4133046E0,4.5336304E1,0E0,0E0,0E0,0E0,0E0],"parents":[2147483647,0,0,1,1,2,2,4,4,5,5],"right_children":[2,4,6,-1,8,10,-1,-1,-1,-1,-1],"split_conditions":[3.85236E1,1.8367932E2,8.50864E1,-5.171561E-2,8.0031E1,7.949222E1,-4.1635174E-2,-3.470254E-2,1.2848327E-1,-3.3530265E-2,4.9268708E-1],"split_indices":[20,6,5,0,5,5,0,0,0,0,0],"split_type":[0,0,0,0,0,0,0,0,0,0,0],"sum_hessian":[1.20717445E2,1.0523327E2,1.5484177E1,1.01773636E2,3.4596307E0,1.1653456E1,3.8307214E0,1.9666955E0,1.4929353E0,1.7835565E0,9.869899E0],"tree_param":{"num_deleted":"0","num_feature":"34","num_nodes":"11","size_leaf_vector":"1"}},{"base_weights":[7.5424933E-3,1.4264668E0,-5.1652618E-2,2.8526154E0,-4.881763E-2,-4.3881025E-2,4.0919924E-1],"categories":[],"categories_nodes":[],"categories_segments":[],"categories_sizes":[],"default_left":[0,0,0,0,0,0,0],"id":43,"left_children":[1,3,-1,5,-1,-1,-1],"loss_changes":[9.332712E1,9.382234E1,0E0,8.1529724E1,0E0,0E0,0E0],"parents":[2147483647,0,0,1,1,3,3],"right_children":[2,4,-1,6,-1,-1,-1],"split_conditions":[5.9870655E1,2.7022692E1,-5.1652618E-2,4.1E1,-4.881763E-2,-4.3881025E-2,4.0919924E-1],"split_indices":[6,4,0,0,0,0,0],"split_type":[0,0,0,0,0,0,0],"sum_hessian":[1.23513985E2,3.2850044E1,9.066393E1,1.8545946E1,1.43041E1,5.249839E0,1.3296106E1],"tree_param":{"num_deleted":"0","num_feature":"34","num_nodes":"7","size_leaf_vector":"1"}},{"base_weights":[-3.3486523E-2,-5.1552504E-2,2.025796E0,-4.4060115E-2,2.816318E-1],"categories":[],"categories_nodes":[],"categories_segments":[],"categories_sizes":[],"default_left":[0,0,0,0,0],"id":44,"left_children":[1,-1,3,-1,-1],"loss_changes":[1.19592415E2,0E0,4.5803192E1,0E0,0E0],"parents":[2147483647,0,0,2,2],"right_children":[2,-1,4,-1,-1],"split_conditions":[1.95E2,-5.1552504E-2,8.404404E1,-4.4060115E-2,2.816318E-1],"split_indices":[2,0,5,0,0],"split_type":[0,0,0,0,0],"sum_hessian":[1.18425415E2,9.6569916E1,2.1855505E1,5.4122252E0,1.6443281E1],"tree_param":{"num_deleted":"0","num_feature":"34","num_nodes":"5","size_leaf_vector":"1"}},{"base_weights":[-1.38061745E-2,-4.7907615E-1,9.770174E-1,-5.1435288E-2,1.3416071E-1,-4.8599474E-2,1.8137273E0,9.193262E-2,-3.868294E-2,-4.6325583E-2,2.9279464E-1],"categories":[],"categories_nodes":[],"categories_segments":[],"categories_sizes":[],"default_left":[0,0,0,0,0,0,0,0,0,0,0],"id":45,"left_children":[1,3,5,-1,7,-1,9,-1,-1,-1,-1],"loss_changes":[5.6168304E1,1.8621273E0,4.8544273E1,0E0,2.5244496E0,0E0,6.473596E1,0E0,0E0,0E0,0E0],"parents":[2147483647,0,0,1,1,2,2,4,4,6,6],"right_children":[2,4,6,-1,8,-1,10,-1,-1,-1,-1],"split_conditions":[8.5E1,8E1,4.5E1,-5.1435288E-2,8.2E1,-4.8599474E-2,5.9870655E1,9.193262E-2,-3.868294E-2,-4.6325583E-2,2.9279464E-1],"split_indices":[0,0,2,0,23,0,6,0,0,0,0],"split_type":[0,0,0,0,0,0,0,0,0,0,0],"sum_hessian":[1.198247E2,8.188821E1,3.7936497E1,7.7586266E1,4.3019342E0,1.395497E1,2.3981525E1,1.410957E0,2.8909774E0,8.071366E0,1.5910158E1],"tree_param":{"num_deleted":"0","num_feature":"34","num_nodes":"11","size_leaf_vector":"1"}},{"base_weights":[2.917104E-2,6.868528E-1,-5.1318802E-2,-4.9924783E-2,1.5405217E0,-4.7816057E-2,2.4041836E0,-3.8539335E-2,2.8128698E-1],"categories":[],"categories_nodes":[],"categories_segments":[],"categories_sizes":[],"default_left":[0,0,0,0,0,0,0,0,0],"id":46,"left_children":[1,3,-1,-1,5,-1,7,-1,-1],"loss_changes":[4.4064445E1,5.728101E1,0E0,0E0,5.815867E1,0E0,2.7381714E1,0E0,0E0],"parents":[2147483647,0,0,1,1,4,4,6,6],"right_children":[2,4,-1,-1,6,-1,8,-1,-1],"split_conditions":[7.582271E1,5.9870655E1,-5.1318802E-2,-4.9924783E-2,6.5003433E0,-4.7816057E-2,2.5011576E1,-3.8539335E-2,2.8128698E-1],"split_indices":[6,6,0,0,3,0,4,0,0],"split_type":[0,0,0,0,0,0,0,0,0],"sum_hessian":[1.21545555E2,5.481217E1,6.673338E1,2.311333E1,3.169884E1,9.631945E0,2.2066895E1,2.8270738E0,1.923982E1],"tree_param":{"num_deleted":"0","num_feature":"34","num_nodes":"9","size_leaf_vector":"1"}},{"base_weights":[7.668471E-3,2.6321487E0,-5.1576044E-2,-2.9982327E-2,2.8568542E-1],"categories":[],"categories_nodes":[],"categories_segments":[],"categories_sizes":[],"default_left":[0,0,0,0,0],"id":47,"left_children":[1,3,-1,-1,-1],"loss_changes":[1.6789319E2,1.4245026E1,0E0,0E0,0E0],"parents":[2147483647,0,0,1,1],"right_children":[2,4,-1,-1,-1],"split_conditions":[2.0396597E1,2.5E1,-5.1576044E-2,-2.9982327E-2,2.8568542E-1],"split_indices":[5,2,0,0,0],"split_type":[0,0,0,0,0],"sum_hessian":[1.2022891E2,1.9321575E1,1.0090733E2,1.3515943E0,1.796998E1],"tree_param":{"num_deleted":"0","num_feature":"34","num_nodes":"5","size_leaf_vector":"1"}},{"base_weights":[2.4745785E-2,-2.3668058E-1,2.899758E-1,-5.1471468E-2,5.698062E-1,-4.9356118E-2,2.3076487E0,2.9445776E-1,-3.5209544E-2],"categories":[],"categories_nodes":[],"categories_segments":[],"categories_sizes":[],"default_left":[0,0,0,0,0,0,0,0,0],"id":48,"left_children":[1,3,-1,-1,5,-1,7,-1,-1],"loss_changes":[9.2093025E1,2.5497559E1,0E0,0E0,5.526762E1,0E0,2.017183E1,0E0,0E0],"parents":[2147483647,0,0,1,1,4,4,6,6],"right_children":[2,4,-1,-1,6,-1,8,-1,-1],"split_conditions":[9.4943306E1,1.3037971E2,2.899758E-1,-5.1471468E-2,8.9901474E1,-4.9356118E-2,6.4727745E0,2.9445776E-1,-3.5209544E-2],"split_indices":[5,6,0,0,5,0,3,0,0],"split_type":[0,0,0,0,0,0,0,0,0],"sum_hessian":[1.20615524E2,1.11403244E2,9.212279E0,8.31123E1,2.8290953E1,1.7995617E1,1.0295335E1,8.21984E0,2.0754945E0],"tree_param":{"num_deleted":"0","num_feature":"34","num_nodes":"9","size_leaf_vector":"1"}},{"base_weights":[-1.4280321E-2,-4.9059814E-1,1.0261953E0,-5.142156E-2,-6.0433064E-2,2.5556512E0,-4.970299E-2,7.188226E-2,-4.029378E-2,-4.2846676E-2,3.5407656E-1],"categories":[],"categories_nodes":[],"categories_segments":[],"categories_sizes":[],"default_left":[0,0,0,0,0,0,0,0,0,0,0],"id":49,"left_children":[1,3,5,-1,7,9,-1,-1,-1,-1,-1],"loss_changes":[5.987926E1,8.107357E-1,8.9673836E1,0E0,1.7430936E0,5.7657135E1,0E0,0E0,0E0,0E0,0E0],"parents":[2147483647,0,0,1,1,2,2,4,4,5,5],"right_children":[2,4,6,-1,8,10,-1,-1,-1,-1,-1],"split_conditions":[1.223886E2,1.17E2,5.611E-1,-5.142156E-2,9.324E-1,4.1E1,-4.970299E-2,7.188226E-2,-4.029378E-2,-4.2846676E-2,3.5407656E-1],"split_indices":[6,0,7,0,9,0,0,0,0,0,0],"split_type":[0,0,0,0,0,0,0,0,0,0,0],"sum_hessian":[1.18806625E2,8.1860374E1,3.6946255E1,7.7414665E1,4.4457083E0,1.809722E1,1.8849033E1,1.021928E0,3.4237802E0,4.6317463E0,1.3465473E1],"tree_param":{"num_deleted":"0","num_feature":"34","num_nodes":"11","size_leaf_vector":"1"}},{"base_weights":[-2.997764E-2,-5.1528122E-2,1.5739225E0,2.8159232E0,-4.7701918E-2,6.8156086E-2,2.9103187E-1],"categories":[],"categories_nodes":[],"categories_segments":[],"categories_sizes":[],"default_left":[0,0,0,0,0,0,0],"id":50,"left_children":[1,-1,3,5,-1,-1,-1],"loss_changes":[9.4747925E1,0E0,7.338055E1,1.5943604E0,0E0,0E0,0E0],"parents":[2147483647,0,0,2,2,3,3],"right_children":[2,-1,4,6,-1,-1,-1],"split_conditions":[1E2,-5.1528122E-2,2.6E1,6.747E-1,-4.7701918E-2,6.8156086E-2,2.9103187E-1],"split_indices":[0,0,2,8,0,0,0],"split_type":[0,0,0,0,0,0,0],"sum_hessian":[1.1968282E2,9.2402626E1,2.7280193E1,1.67586E1,1.0521593E1,1.0579406E0,1.5700659E1],"tree_param":{"num_deleted":"0","num_feature":"34","num_nodes":"7","size_leaf_vector":"1"}},{"base_weights":[2.5481595E-2,-5.1559698E-2,2.1709855E0,2.8365344E-1,-4.3314617E-2],"categories":[],"categories_nodes":[],"categories_segments":[],"categories_sizes":[],"default_left":[0,0,0,0,0],"id":51,"left_children":[1,-1,3,-1,-1],"loss_changes":[1.4350095E2,0E0,4.4373444E1,0E0,0E0],"parents":[2147483647,0,0,2,2],"right_children":[2,-1,4,-1,-1],"split_conditions":[1.2E2,-5.1559698E-2,8.404404E1,2.8365344E-1,-4.3314617E-2],"split_indices":[1,0,5,0,0],"split_type":[0,0,0,0,0],"sum_hessian":[1.2164906E2,9.7755585E1,2.3893478E1,1.8958843E1,4.934635E0],"tree_param":{"num_deleted":"0","num_feature":"34","num_nodes":"5","size_leaf_vector":"1"}},{"base_weights":[-6.583914E-2,-5.1484823E-2,1.0392143E0,-4.6672683E-2,1.5338373E0,2.1732137E0,-3.3006066E-1,-3.5732336E-2,2.422134E-1,2.2765778E-2,-4.4746067E-2],"categories":[],"categories_nodes":[],"categories_segments":[],"categories_sizes":[],"default_left":[0,0,0,0,0,0,0,0,0,0,0],"id":52,"left_children":[1,-1,3,-1,5,7,9,-1,-1,-1,-1],"loss_changes":[6.0956867E1,0E0,2.717009E1,0E0,3.2855377E1,1.3596718E1,6.0970646E-1,0E0,0E0,0E0,0E0],"parents":[2147483647,0,0,2,2,4,4,5,5,6,6],"right_children":[2,-1,4,-1,6,8,10,-1,-1,-1,-1],"split_conditions":[1.4922203E2,-5.1484823E-2,3.5E1,-4.6672683E-2,1.9737526E2,6.0075083E0,8.826E-1,-3.5732336E-2,2.422134E-1,2.2765778E-2,-4.4746067E-2],"split_indices":[6,0,2,0,6,3,10,0,0,0,0],"split_type":[0,0,0,0,0,0,0,0,0,0,0],"sum_hessian":[1.20774254E2,8.625922E1,3.451504E1,8.547505E0,2.5967535E1,1.9211447E1,6.7560887E0,1.6815208E0,1.7529926E1,1.0115365E0,5.7445526E0],"tree_param":{"num_deleted":"0","num_feature":"34","num_nodes":"11","size_leaf_vector":"1"}},{"base_weights":[4.62727E-2,2.1914396E0,-5.1562544E-2,2.8310852E0,-4.3298252E-2,2.914259E-1,6.709474E-2],"categories":[],"categories_nodes":[],"categories_segments":[],"categories_sizes":[],"default_left":[0,0,0,0,0,0,0],"id":53,"left_children":[1,3,-1,5,-1,-1,-1],"loss_changes":[1.4990771E2,4.455375E1,0E0,1.7970428E0,0E0,0E0,0E0],"parents":[2147483647,0,0,1,1,3,3],"right_children":[2,4,-1,6,-1,-1,-1],"split_conditions":[3.647E-1,2.6E1,-5.1562544E-2,2.4938963E1,-4.3298252E-2,2.914259E-1,6.709474E-2],"split_indices":[10,2,0,5,0,0,0],"split_type":[0,0,0,0,0,0,0],"sum_hessian":[1.22429596E2,2.481042E1,9.761918E1,1.9885113E1,4.925306E0,1.881168E1,1.0734326E0],"tree_param":{"num_deleted":"0","num_feature":"34","num_nodes":"7","size_leaf_vector":"1"}},{"base_weights":[-1.7613618E-2,1.3016866E0,-5.1492E-2,-4.870191E-2,2.6809723E0,2.9212182E0,-3.022483E-2,2.0422472E-2,3.086685E-1],"categories":[],"categories_nodes":[],"categories_segments":[],"categories_sizes":[],"default_left":[0,0,0,0,0,0,0,0,0],"id":54,"left_children":[1,3,-1,-1,5,7,-1,-1,-1],"loss_changes":[7.9378426E1,8.3028015E1,0E0,0E0,1.4397385E1,7.257248E0,0E0,0E0,0E0],"parents":[2147483647,0,0,1,1,4,4,5,5],"right_children":[2,4,-1,-1,6,8,-1,-1,-1],"split_conditions":[5.521607E1,5.6E1,-5.1492E-2,-4.870191E-2,6.971184E1,6.020017E1,-3.022483E-2,2.0422472E-2,3.086685E-1],"split_indices":[6,1,0,0,5,5,0,0,0],"split_type":[0,0,0,0,0,0,0,0,0],"sum_hessian":[1.1896432E2,3.2124363E1,8.683996E1,1.4268013E1,1.785635E1,1.6544748E1,1.3116027E0,1.078003E0,1.5466744E1],"tree_param":{"num_deleted":"0","num_feature":"34","num_nodes":"9","size_leaf_vector":"1"}},{"base_weights":[-2.829376E-2,-5.1316448E-2,6.0211843E-1,2.1211753E0,-5.0407063E-2,2.8473213E-1,-4.3069076E-2],"categories":[],"categories_nodes":[],"categories_segments":[],"categories_sizes":[],"default_left":[0,0,0,0,0,0,0],"id":55,"left_children":[1,-1,3,5,-1,-1,-1],"loss_changes":[3.649007E1,0E0,8.831436E1,4.212169E1,0E0,0E0,0E0],"parents":[2147483647,0,0,2,2,3,3],"right_children":[2,-1,4,6,-1,-1,-1],"split_conditions":[6E1,-5.1316448E-2,2.6E1,1.01E2,-5.0407063E-2,2.8473213E-1,-4.3069076E-2],"split_indices":[0,0,2,0,0,0,0],"split_type":[0,0,0,0,0,0,0],"sum_hessian":[1.1736712E2,6.644674E1,5.092038E1,2.1069485E1,2.9850895E1,1.6312035E1,4.7574506E0],"tree_param":{"num_deleted":"0","num_feature":"34","num_nodes":"7","size_leaf_vector":"1"}},{"base_weights":[-5.3060977E-3,1.2149003E0,-5.147926E-2,-4.8623696E-2,2.320749E0,-3.573766E-2,2.633408E0,2.026679E-2,2.7635893E-1],"categories":[],"categories_nodes":[],"categories_segments":[],"categories_sizes":[],"default_left":[0,0,0,0,0,0,0,0,0],"id":56,"left_children":[1,3,-1,-1,5,-1,7,-1,-1],"loss_changes":[7.563152E1,6.854262E1,0E0,0E0,1.9271309E1,0E0,5.6806793E0,0E0,0E0],"parents":[2147483647,0,0,1,1,4,4,6,6],"right_children":[2,4,-1,-1,6,-1,8,-1,-1],"split_conditions":[5.4618134E1,2.726459E1,-5.147926E-2,-4.8623696E-2,3.652E-1,-3.573766E-2,1.39799E1,2.026679E-2,2.7635893E-1],"split_indices":[5,4,0,0,7,0,20,0,0],"split_type":[0,0,0,0,0,0,0,0,0],"sum_hessian":[1.1965091E2,3.4835728E1,8.4815186E1,1.3944729E1,2.0890999E1,2.1690092E0,1.872199E1,1.0816807E0,1.764031E1],"tree_param":{"num_deleted":"0","num_feature":"34","num_nodes":"9","size_leaf_vector":"1"}},{"base_weights":[2.1731688E-2,-1.787544E-1,2.5461E0,1.505638E0,-3.3326143E-1,3.133355E-1,-3.061517E-2,3.5661107E-1,-4.3214906E-2,2.6872125E-1,-5.0253165E-1,2.938366E-1,-4.4245478E-2,-2.2830432E-2,-5.1416755E-2],"categories":[],"categories_nodes":[],"categories_segments":[],"categories_sizes":[],"default_left":[0,0,0,0,0,0,0,0,0,0,0,0,0,0,0],"id":57,"left_children":[1,3,5,7,9,-1,-1,-1,-1,11,13,-1,-1,-1,-1],"loss_changes":[6.0869465E1,2.9525822E1,1.5780716E1,3.9678307E1,1.0627647E1,0E0,0E0,0E0,0E0,4.5444668E1,1.401844E-1,0E0,0E0,0E0,0E0],"parents":[2147483647,0,0,1,1,2,2,3,3,4,4,9,9,10,10],"right_children":[2,4,6,8,10,-1,-1,-1,-1,12,14,-1,-1,-1,-1],"split_conditions":[8.016211E0,5.505394E0,2.6E1,7.2850174E1,6.618E-1,3.133355E-1,-3.061517E-2,3.5661107E-1,-4.3214906E-2,3.11296E1,5.606E-1,2.938366E-1,-4.4245478E-2,-2.2830432E-2,-5.1416755E-2],"split_indices":[3,3,2,6,10,0,0,0,0,21,8,0,0,0,0],"split_type":[0,0,0,0,0,0,0,0,0,0,0,0,0,0,0],"sum_hessian":[1.1837216E2,1.1052354E2,7.848624E0,8.5515995E0,1.0197193E2,6.426837E0,1.4217876E0,3.7373397E0,4.8142595E0,2.2251276E1,7.972066E1,4.0219183E0,1.8229357E1,4.084344E0,7.5636314E1],"tree_param":{"num_deleted":"0","num_feature":"34","num_nodes":"15","size_leaf_vector":"1"}},{"base_weights":[6.344285E-4,1.0725058E0,-4.7985277E-1,1.7320925E0,-4.7807235E-2,6.257175E-2,-5.1428895E-2,-4.6701055E-2,2.8027686E-1,-4.0821783E-2,9.8145984E-2],"categories":[],"categories_nodes":[],"categories_segments":[],"categories_sizes":[],"default_left":[0,0,0,0,0,0,0,0,0,0,0],"id":58,"left_children":[1,3,5,7,-1,9,-1,-1,-1,-1,-1],"loss_changes":[6.284821E1,3.9457798E1,1.6060867E0,6.421021E1,0E0,2.962322E0,0E0,0E0,0E0,0E0,0E0],"parents":[2147483647,0,0,1,1,2,2,3,3,5,5],"right_children":[2,4,6,8,-1,10,-1,-1,-1,-1,-1],"split_conditions":[3.04328E1,4.1E1,3.3018E1,6.971184E1,-4.7807235E-2,1.029E0,-5.1428895E-2,-4.6701055E-2,2.8027686E-1,-4.0821783E-2,9.8145984E-2],"split_indices":[21,0,21,5,0,9,0,0,0,0,0],"split_type":[0,0,0,0,0,0,0,0,0,0,0],"sum_hessian":[1.2003124E2,3.6770794E1,8.326045E1,2.571504E1,1.1055755E1,4.921533E0,7.833891E1,8.604907E0,1.7110132E1,3.6217093E0,1.299824E0],"tree_param":{"num_deleted":"0","num_feature":"34","num_nodes":"11","size_leaf_vector":"1"}},{"base_weights":[-3.769087E-3,2.8860307E-1,-5.159275E-2],"categories":[],"categories_nodes":[],"categories_segments":[],"categories_sizes":[],"default_left":[0,0,0],"id":59,"left_children":[1,-1,-1],"loss_changes":[1.8230797E2,0E0,0E0],"parents":[2147483647,0,0],"right_children":[2,-1,-1],"split_conditions":[3.2678917E1,2.8860307E-1,-5.159275E-2],"split_indices":[6,0,0],"split_type":[0,0,0],"sum_hessian":[1.2117208E2,1.7544434E1,1.0362765E2],"tree_param":{"num_deleted":"0","num_feature":"34","num_nodes":"3","size_leaf_vector":"1"}},{"base_weights":[-3.4396455E-2,2.8505215E-1,-4.6938032E-1,3.9831206E-1,-5.157255E-2,-4.17127E-2,2.1450725E-1],"categories":[],"categories_nodes":[],"categories_segments":[],"categories_sizes":[],"default_left":[0,0,0,0,0,0,0],"id":60,"left_children":[1,-1,3,5,-1,-1,-1],"loss_changes":[1.5437692E2,0E0,4.501562E0,9.414107E0,0E0,0E0,0E0],"parents":[2147483647,0,0,2,2,3,3],"right_children":[2,-1,4,6,-1,-1,-1],"split_conditions":[1.5E1,2.8505215E-1,1.6E1,8.404404E1,-5.157255E-2,-4.17127E-2,2.1450725E-1],"split_indices":[2,0,2,5,0,0,0],"split_type":[0,0,0,0,0,0,0],"sum_hessian":[1.209538E2,1.5120149E1,1.0583365E2,4.9811E0,1.0085255E2,3.91477E0,1.0663301E0],"tree_param":{"num_deleted":"0","num_feature":"34","num_nodes":"7","size_leaf_vector":"1"}},{"base_weights":[-1.3041369E-2,-2.9522154E-1,1.9850048E0,-5.142823E-2,3.056835E-1,-4.2283278E-2,2.9741566E0,-4.9249213E-2,1.4954215E0,7.1141325E-2,3.1359574E-1,3.066514E-1,-4.3757413E-2],"categories":[],"categories_nodes":[],"categories_segments":[],"categories_sizes":[],"default_left":[0,0,0,0,0,0,0,0,0,0,0,0,0],"id":61,"left_children":[1,3,5,-1,7,-1,9,-1,11,-1,-1,-1,-1],"loss_changes":[6.891546E1,1.4250726E1,3.7286198E1,0E0,2.849446E1,0E0,1.7402115E0,0E0,3.7736977E1,0E0,0E0,0E0,0E0],"parents":[2147483647,0,0,1,1,2,2,4,4,6,6,8,8],"right_children":[2,4,6,-1,8,-1,10,-1,12,-1,-1,-1,-1],"split_conditions":[3.44185E1,9.009878E1,8.389242E1,-5.142823E-2,3.1E1,-4.2283278E-2,4.8E1,-4.9249213E-2,7.1E1,7.1141325E-2,3.1359574E-1,3.066514E-1,-4.3757413E-2],"split_indices":[12,5,5,0,1,0,1,0,1,0,0,0,0],"split_type":[0,0,0,0,0,0,0,0,0,0,0,0,0],"sum_hessian":[1.2019254E2,1.0606538E2,1.4127163E1,7.783476E1,2.8230614E1,4.2803283E0,9.846834E0,1.7246365E1,1.098425E1,1.0172801E0,8.829555E0,5.7358694E0,5.248381E0],"tree_param":{"num_deleted":"0","num_feature":"34","num_nodes":"13","size_leaf_vector":"1"}},{"base_weights":[-3.889905E-2,8.33412E-1,-3.87574E-1,-2.0337595E-1,1.7681551E0,1.4125296E-1,-4.4375777E-1,-4.8284795E-2,6.377753E-1,-4.0991608E-2,2.3445604E0,-4.8692096E-2,-5.1357467E-2,-3.4843594E-2,1.4902496E-1,-3.7704002E-2,2.969332E-1,-4.7456633E-2,1.2091016E-1],"categories":[],"categories_nodes":[],"categories_segments":[],"categories_sizes":[],"default_left":[0,0,0,0,0,0,0,0,0,0,0,0,0,0,0,0,0,0,0],"id":62,"left_children":[1,3,5,7,9,-1,11,-1,13,-1,15,17,-1,-1,-1,-1,-1,-1,-1],"loss_changes":[3.6701157E1,3.37682E1,9.337923E0,4.360951E0,2.3850056E1,0E0,2.2997913E0,0E0,4.4963856E0,0E0,2.58861E1,7.9460907E0,0E0,0E0,0E0,0E0,0E0,0E0,0E0],"parents":[2147483647,0,0,1,1,2,2,3,3,4,4,6,6,8,8,10,10,11,11],"right_children":[2,4,6,8,10,-1,12,-1,14,-1,16,18,-1,-1,-1,-1,-1,-1,-1],"split_conditions":[7.032E-1,2.07206E1,5.505394E0,4.87579E1,4.1E1,1.4125296E-1,7.344E-1,-4.8284795E-2,6.1E1,-4.0991608E-2,2.344E-1,7.1E1,-5.1357467E-2,-3.4843594E-2,1.4902496E-1,-3.7704002E-2,2.969332E-1,-4.7456633E-2,1.2091016E-1],"split_indices":[9,20,3,21,1,0,10,0,1,0,8,1,0,0,0,0,0,0,0],"split_type":[0,0,0,0,0,0,0,0,0,0,0,0,0,0,0,0,0,0,0],"sum_hessian":[1.1860475E2,3.3472755E1,8.5131996E1,1.6241081E1,1.7231676E1,1.8459926E0,8.3286E1,1.2510457E1,3.7306237E0,3.6663654E0,1.35653105E1,1.2762959E1,7.052304E1,2.003768E0,1.7268558E0,2.6066895E0,1.0958621E1,9.999832E0,2.7631266E0],"tree_param":{"num_deleted":"0","num_feature":"34","num_nodes":"19","size_leaf_vector":"1"}},{"base_weights":[3.1115642E-2,-5.1366784E-2,7.925255E-1,1.7260138E0,-4.9764585E-2,2.3962188E0,-4.552122E-2,-4.309621E-2,3.0838856E-1],"categories":[],"categories_nodes":[],"categories_segments":[],"categories_sizes":[],"default_left":[0,0,0,0,0,0,0,0,0],"id":63,"left_children":[1,-1,3,5,-1,7,-1,-1,-1],"loss_changes":[5.0962498E1,0E0,6.2553215E1,4.486657E1,0E0,4.617372E1,0E0,0E0,0E0],"parents":[2147483647,0,0,2,2,3,3,5,5],"right_children":[2,-1,4,6,-1,8,-1,-1,-1],"split_conditions":[8.50864E1,-5.1366784E-2,2.4982874E1,4.6E1,-4.9764585E-2,1.6E1,-4.552122E-2,-4.309621E-2,3.0838856E-1],"split_indices":[5,0,4,2,0,2,0,0,0],"split_type":[0,0,0,0,0,0,0,0,0],"sum_hessian":[1.2087796E2,7.065218E1,5.0225777E1,2.8945084E1,2.1280693E1,2.2066385E1,6.878697E0,4.3902397E0,1.7676146E1],"tree_param":{"num_deleted":"0","num_feature":"34","num_nodes":"9","size_leaf_vector":"1"}},{"base_weights":[-5.758755E-2,-4.761679E-1,1.9871228E0,-5.1547356E-2,4.9997783E-1,2.6004786E0,-4.2015474E-2,1.1921761E-1,-3.391969E-2,-3.661786E-2,3.117126E-1],"categories":[],"categories_nodes":[],"categories_segments":[],"categories_sizes":[],"default_left":[0,0,0,0,0,0,0,0,0,0,0],"id":64,"left_children":[1,3,5,-1,7,9,-1,-1,-1,-1,-1],"loss_changes":[1.0363477E2,4.1098557E0,3.148127E1,0E0,2.9566598E0,2.6494469E1,0E0,0E0,0E0,0E0,0E0],"parents":[2147483647,0,0,1,1,2,2,4,4,5,5],"right_children":[2,4,6,-1,8,10,-1,-1,-1,-1,-1],"split_conditions":[3.8048E1,1.8367932E2,6.958E-1,-5.1547356E-2,6.447663E0,6.976E-1,-4.2015474E-2,1.1921761E-1,-3.391969E-2,-3.661786E-2,3.117126E-1],"split_indices":[20,6,7,0,3,8,0,0,0,0,0],"split_type":[0,0,0,0,0,0,0,0,0,0,0],"sum_hessian":[1.1898073E2,9.939942E1,1.9581308E1,9.600557E1,3.3938484E0,1.5541257E1,4.040051E0,1.6292768E0,1.7645717E0,2.3482926E0,1.3192965E1],"tree_param":{"num_deleted":"0","num_feature":"34","num_nodes":"11","size_leaf_vector":"1"}},{"base_weights":[3.0639604E-2,1.2257166E0,-5.1474612E-2,2.2038093E0,-4.8615087E-2,-4.2771388E-2,2.8167337E-1],"categories":[],"categories_nodes":[],"categories_segments":[],"categories_sizes":[],"default_left":[0,0,0,0,0,0,0],"id":65,"left_children":[1,3,-1,5,-1,-1,-1],"loss_changes":[8.0944534E1,6.621808E1,0E0,4.1433754E1,0E0,0E0,0E0],"parents":[2147483647,0,0,1,1,3,3],"right_children":[2,4,-1,6,-1,-1,-1],"split_conditions":[5.9870655E1,2.7022692E1,-5.1474612E-2,4.1E1,-4.8615087E-2,-4.2771388E-2,2.8167337E-1],"split_indices":[6,4,0,0,0,0,0],"split_type":[0,0,0,0,0,0,0],"sum_hessian":[1.22222336E2,3.7908306E1,8.431403E1,2.3941639E1,1.3966666E1,4.580018E0,1.936162E1],"tree_param":{"num_deleted":"0","num_feature":"34","num_nodes":"7","size_leaf_vector":"1"}},{"base_weights":[2.6801893E-2,-5.1409896E-2,1.7251884E0,-4.366715E-2,2.1931814E-1],"categories":[],"categories_nodes":[],"categories_segments":[],"categories_sizes":[],"default_left":[0,0,0,0,0],"id":66,"left_children":[1,-1,3,-1,-1],"loss_changes":[1.14595215E2,0E0,3.143908E1,0E0,0E0],"parents":[2147483647,0,0,2,2],"right_children":[2,-1,4,-1,-1],"split_conditions":[1.95E2,-5.1409896E-2,8.404404E1,-4.366715E-2,2.1931814E-1],"split_indices":[2,0,5,0,0],"split_type":[0,0,0,0,0],"sum_hessian":[1.2277643E2,9.36486E1,2.9127834E1,5.1953254E0,2.393251E1],"tree_param":{"num_deleted":"0","num_feature":"34","num_nodes":"5","size_leaf_vector":"1"}},{"base_weights":[2.0709695E-2,-5.1313717E-2,1.0262269E0,-4.9463384E-2,2.3803113E-1],"categories":[],"categories_nodes":[],"categories_segments":[],"categories_sizes":[],"default_left":[0,0,0,0,0],"id":67,"left_children":[1,-1,3,-1,-1],"loss_changes":[6.517055E1,0E0,8.7870575E1,0E0,0E0],"parents":[2147483647,0,0,2,2],"right_children":[2,-1,4,-1,-1],"split_conditions":[7E1,-5.1313717E-2,5.9E1,-4.9463384E-2,2.3803113E-1],"split_indices":[1,0,0,0,0],"split_type":[0,0,0,0,0],"sum_hessian":[1.19426414E2,7.832955E1,4.1096867E1,1.9655357E1,2.1441507E1],"tree_param":{"num_deleted":"0","num_feature":"34","num_nodes":"5","size_leaf_vector":"1"}},{"base_weights":[-2.4988462E-4,5.755044E-1,-5.1154163E-2,-3.9585552E-1,1.3405713E0,-4.6529433E-1,3.1949002E-2,-4.6006132E-2,1.9172552E0,-5.0439388E-2,3.4169607E-5,-4.1991573E-2,2.4230205E-1],"categories":[],"categories_nodes":[],"categories_segments":[],"categories_sizes":[],"default_left":[0,0,0,0,0,0,0,0,0,0,0,0,0],"id":68,"left_children":[1,3,-1,5,7,9,-1,-1,11,-1,-1,-1,-1],"loss_changes":[3.575054E1,4.2980774E1,0E0,1.43715E0,3.4299496E1,4.3805933E-1,0E0,0E0,3.0059181E1,0E0,0E0,0E0,0E0],"parents":[2147483647,0,0,1,1,3,3,4,4,5,5,8,8],"right_children":[2,4,-1,6,8,10,-1,-1,12,-1,-1,-1,-1],"split_conditions":[7.582271E1,5.8E1,-5.1154163E-2,1.56578E1,6.4969344E0,3.239503E2,3.1949002E-2,-4.6006132E-2,5.7230286E1,-5.0439388E-2,3.4169607E-5,-4.1991573E-2,2.4230205E-1],"split_indices":[6,1,0,20,3,25,0,0,6,0,0,0,0],"split_type":[0,0,0,0,0,0,0,0,0,0,0,0,0],"sum_hessian":[1.1944414E2,5.6121437E1,6.33227E1,2.4939644E1,3.1181793E1,2.3051573E1,1.8880705E0,7.6130624E0,2.3568731E1,2.1189085E1,1.8624884E0,4.223132E0,1.9345598E1],"tree_param":{"num_deleted":"0","num_feature":"34","num_nodes":"13","size_leaf_vector":"1"}},{"base_weights":[-8.436305E-3,1.9743102E0,-5.1423956E-2,-3.3244066E-2,2.1637829E-1],"categories":[],"categories_nodes":[],"categories_segments":[],"categories_sizes":[],"default_left":[0,0,0,0,0],"id":69,"left_children":[1,3,-1,-1,-1],"loss_changes":[1.2226231E2,1.1549667E1,0E0,0E0,0E0],"parents":[2147483647,0,0,1,1],"right_children":[2,4,-1,-1,-1],"split_conditions":[2.0396597E1,2.6E1,-5.1423956E-2,-3.3244066E-2,2.1637829E-1],"split_indices":[5,2,0,0,0],"split_type":[0,0,0,0,0],"sum_hessian":[1.198989E2,2.3779613E1,9.611929E1,1.7476885E0,2.2031925E1],"tree_param":{"num_deleted":"0","num_feature":"34","num_nodes":"5","size_leaf_vector":"1"}},{"base_weights":[-6.33515E-2,-4.8001137E-1,1.0464602E0,4.9607567E-2,-5.131949E-2,-4.8391696E-2,2.1392715E0,-4.1292593E-2,1.0840696E-1,2.3671496E-1,-3.128338E-2],"categories":[],"categories_nodes":[],"categories_segments":[],"categories_sizes":[],"default_left":[0,0,0,0,0,0,0,0,0,0,0],"id":70,"left_children":[1,3,5,7,-1,-1,9,-1,-1,-1,-1],"loss_changes":[5.4881046E1,1.5401115E0,5.5243893E1,3.315312E0,0E0,0E0,1.1410217E1,0E0,0E0,0E0,0E0],"parents":[2147483647,0,0,1,1,2,2,3,3,6,6],"right_children":[2,4,6,8,-1,-1,10,-1,-1,-1,-1],"split_conditions":[7.296E-1,1.6E1,6.24741E1,2.68323E1,-5.131949E-2,-4.8391696E-2,3.1E1,-4.1292593E-2,1.0840696E-1,2.3671496E-1,-3.128338E-2],"split_indices":[7,1,21,20,0,0,1,0,0,0,0],"split_type":[0,0,0,0,0,0,0,0,0,0,0],"sum_hessian":[1.1659752E2,8.518409E1,3.141343E1,4.993377E0,8.019071E1,1.3318848E1,1.8094582E1,3.8657398E0,1.1276373E0,1.6587706E1,1.5068755E0],"tree_param":{"num_deleted":"0","num_feature":"34","num_nodes":"11","size_leaf_vector":"1"}},{"base_weights":[5.530815E-2,-5.127294E-2,9.420704E-1,2.5231879E0,-5.0092697E-2,-2.9898724E-2,2.715052E-1],"categories":[],"categories_nodes":[],"categories_segments":[],"categories_sizes":[],"default_left":[0,0,0,0,0,0,0],"id":71,"left_children":[1,-1,3,5,-1,-1,-1],"loss_changes":[6.1441353E1,0E0,1.0987636E2,1.3201157E1,0E0,0E0,0E0],"parents":[2147483647,0,0,2,2,3,3],"right_children":[2,-1,4,6,-1,-1,-1],"split_conditions":[8E1,-5.127294E-2,7.727E-1,2.19931E1,-5.0092697E-2,-2.9898724E-2,2.715052E-1],"split_indices":[0,0,10,22,0,0,0],"split_type":[0,0,0,0,0,0,0],"sum_hessian":[1.2001767E2,7.341297E1,4.6604702E1,2.1880873E1,2.472383E1,1.3573246E0,2.0523548E1],"tree_param":{"num_deleted":"0","num_feature":"34","num_nodes":"7","size_leaf_vector":"1"}},{"base_weights":[-1.8743554E-2,4.8551133E-1,-5.112804E-2,-5.0216187E-2,1.3970631E0,2.0575354E0,-4.618953E-2,2.2537665E-1,-3.2335866E-2],"categories":[],"categories_nodes":[],"categories_segments":[],"categories_sizes":[],"default_left":[0,0,0,0,0,0,0,0,0],"id":72,"left_children":[1,3,-1,-1,5,7,-1,-1,-1],"loss_changes":[3.0036715E1,5.4519997E1,0E0,0E0,3.9442833E1,1.1621971E1,0E0,0E0,0E0],"parents":[2147483647,0,0,1,1,4,4,5,5],"right_children":[2,4,-1,-1,6,8,-1,-1,-1],"split_conditions":[2.6E1,8.923E-1,-5.112804E-2,-5.0216187E-2,8.4884575E1,2.5990696E1,-4.618953E-2,2.2537665E-1,-3.2335866E-2],"split_indices":[2,9,0,0,5,4,0,0,0],"split_type":[0,0,0,0,0,0,0,0,0],"sum_hessian":[1.1893876E2,5.877732E1,6.0161438E1,2.8426311E1,3.0351007E1,2.2315632E1,8.035377E0,2.0665771E1,1.6498599E0],"tree_param":{"num_deleted":"0","num_feature":"34","num_nodes":"9","size_leaf_vector":"1"}},{"base_weights":[-3.4943037E-2,-5.1402133E-2,1.7246617E0,2.1731627E-1,-4.2046566E-2],"categories":[],"categories_nodes":[],"categories_segments":[],"categories_sizes":[],"default_left":[0,0,0,0,0],"id":73,"left_children":[1,-1,3,-1,-1],"loss_changes":[1.0016901E2,0E0,2.5382942E1,0E0,0E0],"parents":[2147483647,0,0,2,2],"right_children":[2,-1,4,-1,-1],"split_conditions":[1.2E2,-5.1402133E-2,8.404404E1,2.1731627E-1,-4.2046566E-2],"split_indices":[1,0,5,0,0],"split_type":[0,0,0,0,0],"sum_hessian":[1.1677444E2,9.234109E1,2.4433344E1,2.019742E1,4.235924E0],"tree_param":{"num_deleted":"0","num_feature":"34","num_nodes":"5","size_leaf_vector":"1"}},{"base_weights":[7.3712887E-3,-5.1321454E-2,1.1024475E0,-4.6282772E-2,1.5118676E0,1.7914339E0,-4.1127395E-2,-4.277843E-2,2.1509793E-1],"categories":[],"categories_nodes":[],"categories_segments":[],"categories_sizes":[],"default_left":[0,0,0,0,0,0,0,0,0],"id":74,"left_children":[1,-1,3,-1,5,7,-1,-1,-1],"loss_changes":[6.92323E1,0E0,2.5775253E1,0E0,1.7538208E1,2.2839134E1,0E0,0E0,0E0],"parents":[2147483647,0,0,2,2,4,4,5,5],"right_children":[2,-1,4,-1,6,8,-1,-1,-1],"split_conditions":[1.4922203E2,-5.1321454E-2,5.7E1,-4.6282772E-2,2.0008827E2,5.611E-1,-4.1127395E-2,-4.277843E-2,2.1509793E-1],"split_indices":[6,0,0,0,6,7,0,0,0],"split_type":[0,0,0,0,0,0,0,0,0],"sum_hessian":[1.1945041E2,8.132218E1,3.8128227E1,7.878205E0,3.0250021E1,2.64705E1,3.7795196E0,3.6642E0,2.2806301E1],"tree_param":{"num_deleted":"0","num_feature":"34","num_nodes":"9","size_leaf_vector":"1"}},{"base_weights":[-2.5105052E-2,1.7257023E0,-5.1412612E-2,2.1999993E0,-4.2679712E-2,2.2591524E-1,6.0998093E-2],"categories":[],"categories_nodes":[],"categories_segments":[],"categories_sizes":[],"default_left":[0,0,0,0,0,0,0],"id":75,"left_children":[1,3,-1,5,-1,-1,-1],"loss_changes":[1.0327838E2,2.7829773E1,0E0,6.67305E-1,0E0,0E0,0E0],"parents":[2147483647,0,0,1,1,3,3],"right_children":[2,4,-1,6,-1,-1,-1],"split_conditions":[3.647E-1,2.6E1,-5.1412612E-2,2.344E-1,-4.2679712E-2,2.2591524E-1,6.0998093E-2],"split_indices":[10,2,0,8,0,0,0],"split_type":[0,0,0,0,0,0,0],"sum_hessian":[1.18590454E2,2.5339687E1,9.325077E1,2.0746244E1,4.5934434E0,1.9596369E1,1.1498741E0],"tree_param":{"num_deleted":"0","num_feature":"34","num_nodes":"7","size_leaf_vector":"1"}},{"base_weights":[-1.1818241E-2,1.1655701E0,-5.1336583E-2,2.0350547E0,-4.8225004E-2,-3.5561483E-2,2.2864437E-1],"categories":[],"categories_nodes":[],"categories_segments":[],"categories_sizes":[],"default_left":[0,0,0,0,0,0,0],"id":76,"left_children":[1,3,-1,5,-1,-1,-1],"loss_changes":[7.065975E1,5.2199936E1,0E0,1.4991791E1,0E0,0E0,0E0],"parents":[2147483647,0,0,1,1,3,3],"right_children":[2,4,-1,6,-1,-1,-1],"split_conditions":[5.521607E1,6.971184E1,-5.1336583E-2,5.9966694E1,-4.8225004E-2,-3.5561483E-2,2.2864437E-1],"split_indices":[6,5,0,5,0,0,0],"split_type":[0,0,0,0,0,0,0],"sum_hessian":[1.17644295E2,3.474831E1,8.289599E1,2.2592312E1,1.2155998E1,2.1101854E0,2.0482126E1],"tree_param":{"num_deleted":"0","num_feature":"34","num_nodes":"7","size_leaf_vector":"1"}},{"base_weights":[-7.867234E-5,-5.1171254E-2,5.959026E-1,1.7125142E0,-5.0207224E-2,2.193911E-1,-4.3333735E-2],"categories":[],"categories_nodes":[],"categories_segments":[],"categories_sizes":[],"default_left":[0,0,0,0,0,0,0],"id":77,"left_children":[1,-1,3,5,-1,-1,-1],"loss_changes":[3.726263E1,0E0,7.006633E1,3.009536E1,0E0,0E0,0E0],"parents":[2147483647,0,0,2,2,3,3],"right_children":[2,-1,4,6,-1,-1,-1],"split_conditions":[6E1,-5.1171254E-2,2.6E1,1.01E2,-5.0207224E-2,2.193911E-1,-4.3333735E-2],"split_indices":[0,0,2,0,0,0,0],"split_type":[0,0,0,0,0,0,0],"sum_hessian":[1.2020291E2,6.47544E1,5.5448513E1,2.7213448E1,2.8235064E1,2.2208773E1,5.0046754E0],"tree_param":{"num_deleted":"0","num_feature":"34","num_nodes":"7","size_leaf_vector":"1"}},{"base_weights":[-1.1097907E-2,1.0600048E0,-5.13161E-2,2.1120014E0,-4.3011126E-1,2.2613857E0,-2.8584922E-2,1.999222E-2,-4.8687108E-2,6.6111825E-2,2.3146223E-1],"categories":[],"categories_nodes":[],"categories_segments":[],"categories_sizes":[],"default_left":[0,0,0,0,0,0,0,0,0,0,0],"id":78,"left_children":[1,3,-1,5,7,9,-1,-1,-1,-1,-1],"loss_changes":[6.4245514E1,6.0682083E1,0E0,8.713249E0,6.9133306E-1,2.8538513E-1,0E0,0E0,0E0,0E0,0E0],"parents":[2147483647,0,0,1,1,3,3,4,4,5,5],"right_children":[2,4,-1,6,8,10,-1,-1,-1,-1,-1],"split_conditions":[6.624E-1,3.9E1,-5.13161E-2,4.1E1,4.4E1,1.44467E1,-2.8584922E-2,1.999222E-2,-4.8687108E-2,6.6111825E-2,2.3146223E-1],"split_indices":[9,1,0,0,1,22,0,0,0,0,0],"split_type":[0,0,0,0,0,0,0,0,0,0,0],"sum_hessian":[1.1745696E2,3.7130775E1,8.032619E1,2.15204E1,1.5610376E1,2.0311895E1,1.2085047E0,1.0816642E0,1.4528712E1,1.085989E0,1.9225906E1],"tree_param":{"num_deleted":"0","num_feature":"34","num_nodes":"11","size_leaf_vector":"1"}},{"base_weights":[5.7178855E-2,8.9852947E-1,-4.853295E-1,2.1134973E0,-4.9714733E-2,7.155605E-2,-5.1228344E-2,2.735825E0,-4.3787345E-2,-3.1553786E-2,2.9843354E-1],"categories":[],"categories_nodes":[],"categories_segments":[],"categories_sizes":[],"default_left":[0,0,0,0,0,0,0,0,0,0,0],"id":79,"left_children":[1,3,5,7,-1,-1,-1,9,-1,-1,-1],"loss_changes":[5.4219803E1,7.9976036E1,2.7064667E0,4.100939E1,0E0,0E0,0E0,1.6331116E1,0E0,0E0,0E0],"parents":[2147483647,0,0,1,1,2,2,3,3,7,7],"right_children":[2,4,6,8,-1,-1,-1,10,-1,-1,-1],"split_conditions":[7.575E-1,7.462069E1,5.316876E0,6.1E1,-4.9714733E-2,7.155605E-2,-5.1228344E-2,2.00854E1,-4.3787345E-2,-3.1553786E-2,2.9843354E-1],"split_indices":[9,6,3,1,0,0,0,18,0,0,0],"split_type":[0,0,0,0,0,0,0,0,0,0,0],"sum_hessian":[1.1683313E2,4.554433E1,7.12888E1,2.4073498E1,2.1470833E1,1.0041251E0,7.0284676E1,1.9294825E1,4.778672E0,1.4327625E0,1.7862062E1],"tree_param":{"num_deleted":"0","num_feature":"34","num_nodes":"11","size_leaf_vector":"1"}},{"base_weights":[-3.4571134E-2,9.415793E-1,-5.130982E-2,1.463561E0,-4.747016E-2,-4.6100643E-2,2.198803E-1],"categories":[],"categories_nodes":[],"categories_segments":[],"categories_sizes":[],"default_left":[0,0,0,0,0,0,0],"id":80,"left_children":[1,3,-1,5,-1,-1,-1],"loss_changes":[5.5538548E1,2.96185E1,0E0,4.181315E1,0E0,0E0,0E0],"parents":[2147483647,0,0,1,1,3,3],"right_children":[2,4,-1,6,-1,-1,-1],"split_conditions":[6.0745834E1,2.6E1,-5.130982E-2,6.971184E1,-4.747016E-2,-4.6100643E-2,2.198803E-1],"split_indices":[6,2,0,5,0,0,0],"split_type":[0,0,0,0,0,0,0],"sum_hessian":[1.1686285E2,3.8124588E1,7.873826E1,2.7833092E1,1.0291496E1,7.7969093E0,2.0036182E1],"tree_param":{"num_deleted":"0","num_feature":"34","num_nodes":"7","size_leaf_vector":"1"}},{"base_weights":[-1.45708835E-2,2.2131427E-1,-5.14307E-2],"categories":[],"categories_nodes":[],"categories_segments":[],"categories_sizes":[],"default_left":[0,0,0],"id":81,"left_children":[1,-1,-1],"loss_changes":[1.3356143E2,0E0,0E0],"parents":[2147483647,0,0],"right_children":[2,-1,-1],"split_conditions":[3.2678917E1,2.2131427E-1,-5.14307E-2],"split_indices":[6,0,0],"split_type":[0,0,0],"sum_hessian":[1.179499E2,2.0983124E1,9.6966774E1],"tree_param":{"num_deleted":"0","num_feature":"34","num_nodes":"3","size_leaf_vector":"1"}},{"base_weights":[1.0784789E-3,2.203511E-1,-4.4609806E-1,6.1504316E-1,-5.1415384E-2,2.9506367E-1,-4.2688474E-2],"categories":[],"categories_nodes":[],"categories_segments":[],"categories_sizes":[],"default_left":[0,0,0,0,0,0,0],"id":82,"left_children":[1,-1,3,5,-1,-1,-1],"loss_changes":[1.20436035E2,0E0,7.657009E0,1.7276142E1,0E0,0E0,0E0],"parents":[2147483647,0,0,2,2,3,3],"right_children":[2,-1,4,6,-1,-1,-1],"split_conditions":[1.5E1,2.203511E-1,1.6E1,2.5E1,-5.1415384E-2,2.9506367E-1,-4.2688474E-2],"split_indices":[2,0,2,1,0,0,0],"split_type":[0,0,0,0,0,0,0],"sum_hessian":[1.2028739E2,1.963813E1,1.0064926E2,5.581643E0,9.506762E1,1.1567539E0,4.424889E0],"tree_param":{"num_deleted":"0","num_feature":"34","num_nodes":"7","size_leaf_vector":"1"}},{"base_weights":[6.295594E-3,-5.13104E-2,9.7788894E-1,-4.902431E-2,1.9336863E0,-4.2563986E-2,2.4535619E-1],"categories":[],"categories_nodes":[],"categories_segments":[],"categories_sizes":[],"default_left":[0,0,0,0,0,0,0],"id":83,"left_children":[1,-1,3,-1,5,-1,-1],"loss_changes":[6.1411324E1,0E0,6.043147E1,0E0,3.278425E1,0E0,0E0],"parents":[2147483647,0,0,2,2,4,4],"right_children":[2,-1,4,-1,6,-1,-1],"split_conditions":[8.063E-1,-5.13104E-2,3.1E1,-4.902431E-2,6.5003433E0,-4.2563986E-2,2.4535619E-1],"split_indices":[8,0,1,0,3,0,0],"split_type":[0,0,0,0,0,0,0],"sum_hessian":[1.196978E2,7.83076E1,4.13902E1,1.651294E1,2.4877262E1,4.524627E0,2.0352634E1],"tree_param":{"num_deleted":"0","num_feature":"34","num_nodes":"7","size_leaf_vector":"1"}},{"base_weights":[-6.361255E-2,6.675916E-1,-4.125981E-1,-2.668069E-1,1.4142224E0,1.0551168E-1,-4.6139854E-1,3.6527544E-1,-4.8201103E-2,1.76538E0,-3.996298E-2,-1.3287869E-1,-5.118047E-2,-3.92528E-2,1.6806789E-1,-3.93351E-2,2.2387622E-1,-4.6777893E-2,1.0467489E-1],"categories":[],"categories_nodes":[],"categories_segments":[],"categories_sizes":[],"default_left":[0,0,0,0,0,0,0,0,0,0,0,0,0,0,0,0,0,0,0],"id":84,"left_children":[1,3,5,7,9,-1,11,13,-1,15,-1,17,-1,-1,-1,-1,-1,-1,-1],"loss_changes":[2.9877787E1,2.6791014E1,6.155596E0,2.5779238E0,1.4211128E1,0E0,1.2119331E0,5.697318E0,0E0,1.9222881E1,0E0,5.085191E0,0E0,0E0,0E0,0E0,0E0,0E0,0E0],"parents":[2147483647,0,0,1,1,2,2,3,3,4,4,6,6,7,7,9,9,11,11],"right_children":[2,4,6,8,10,-1,12,14,-1,16,-1,18,-1,-1,-1,-1,-1,-1,-1],"split_conditions":[7.189E-1,1.0000757E2,5.505394E0,2.1E1,4E1,1.0551168E-1,6.663797E1,8.806639E1,-4.8201103E-2,2.4938963E1,-3.996298E-2,1.0695E1,-5.118047E-2,-3.92528E-2,1.6806789E-1,-3.93351E-2,2.2387622E-1,-4.6777893E-2,1.0467489E-1],"split_indices":[9,6,3,2,0,0,5,6,0,5,0,19,0,0,0,0,0,0,0],"split_type":[0,0,0,0,0,0,0,0,0,0,0,0,0,0,0,0,0,0,0],"sum_hessian":[1.1500585E2,3.6860912E1,7.814494E1,1.6657244E1,2.0203667E1,1.8510802E0,7.629386E1,4.0536895E0,1.2603555E1,1.6949087E1,3.2545807E0,1.0632592E1,6.566127E1,3.0171194E0,1.0365703E0,3.0786772E0,1.3870409E1,8.7514715E0,1.8811203E0],"tree_param":{"num_deleted":"0","num_feature":"34","num_nodes":"19","size_leaf_vector":"1"}},{"base_weights":[-3.242384E-2,7.72662E-1,-4.995281E-1,1.635417E0,-4.9157944E-2,1.7435165E-3,-5.1257413E-2,-4.3443758E-2,2.1119077E0,-3.4470394E-2,2.3725843E-1],"categories":[],"categories_nodes":[],"categories_segments":[],"categories_sizes":[],"default_left":[0,0,0,0,0,0,0,0,0,0,0],"id":85,"left_children":[1,3,5,7,-1,-1,-1,-1,9,-1,-1],"loss_changes":[4.4706436E1,4.843065E1,5.160427E-1,2.674253E1,0E0,0E0,0E0,0E0,1.4557472E1,0E0,0E0],"parents":[2147483647,0,0,1,1,2,2,3,3,8,8],"right_children":[2,4,6,8,-1,-1,-1,-1,10,-1,-1],"split_conditions":[3E1,2.4962732E1,3.1E1,3.5E1,-4.9157944E-2,1.7435165E-3,-5.1257413E-2,-4.3443758E-2,5.9870655E1,-3.4470394E-2,2.3725843E-1],"split_indices":[1,4,1,2,0,0,0,0,6,0,0],"split_type":[0,0,0,0,0,0,0,0,0,0,0],"sum_hessian":[1.1685509E2,4.2664967E1,7.419012E1,2.5184643E1,1.7480324E1,1.8178868E0,7.237223E1,4.72925E0,2.0455393E1,1.9314164E0,1.8523977E1],"tree_param":{"num_deleted":"0","num_feature":"34","num_nodes":"11","size_leaf_vector":"1"}},{"base_weights":[3.0293124E-2,-5.1390182E-2,1.5996095E0,-4.4116687E-2,2.0349004E0,-3.9399866E-2,2.3726664E0,2.4663153E-1,1.9913584E-2],"categories":[],"categories_nodes":[],"categories_segments":[],"categories_sizes":[],"default_left":[0,0,0,0,0,0,0,0,0],"id":86,"left_children":[1,-1,3,-1,5,-1,7,-1,-1],"loss_changes":[1.0525596E2,0E0,2.908432E1,0E0,2.2535866E1,0E0,4.242981E0,0E0,0E0],"parents":[2147483647,0,0,2,2,4,4,6,6],"right_children":[2,-1,4,-1,6,-1,8,-1,-1],"split_conditions":[8.97362E1,-5.1390182E-2,5.9E1,-4.4116687E-2,8.0031E1,-3.9399866E-2,9.467E-1,2.4663153E-1,1.9913584E-2],"split_indices":[21,0,0,0,5,0,10,0,0],"split_type":[0,0,0,0,0,0,0,0,0],"sum_hessian":[1.2128596E2,9.055615E1,3.0729807E1,5.3999057E0,2.5329903E1,3.0720546E0,2.2257847E1,2.1209314E1,1.0485318E0],"tree_param":{"num_deleted":"0","num_feature":"34","num_nodes":"9","size_leaf_vector":"1"}},{"base_weights":[-3.7201006E-2,9.878172E-1,-5.133277E-2,1.7057418E0,-4.8112057E-2,2.1627064E-1,-4.241647E-2],"categories":[],"categories_nodes":[],"categories_segments":[],"categories_sizes":[],"default_left":[0,0,0,0,0,0,0],"id":87,"left_children":[1,3,-1,5,-1,-1,-1],"loss_changes":[5.9187286E1,4.1399227E1,0E0,2.6287346E1,0E0,0E0,0E0],"parents":[2147483647,0,0,1,1,3,3],"right_children":[2,4,-1,6,-1,-1,-1],"split_conditions":[5.9870655E1,3.1E1,-5.133277E-2,2.7022692E1,-4.8112057E-2,2.1627064E-1,-4.241647E-2],"split_indices":[6,1,0,4,0,0,0],"split_type":[0,0,0,0,0,0,0],"sum_hessian":[1.1923684E2,3.7478165E1,8.1758675E1,2.5066181E1,1.24119835E1,2.062562E1,4.4405603E0],"tree_param":{"num_deleted":"0","num_feature":"34","num_nodes":"7","size_leaf_vector":"1"}},{"base_weights":[5.9099146E-3,-5.1246103E-2,1.4624832E0,-4.2510197E-2,1.7937161E-1],"categories":[],"categories_nodes":[],"categories_segments":[],"categories_sizes":[],"default_left":[0,0,0,0,0],"id":88,"left_children":[1,-1,3,-1,-1],"loss_changes":[9.038184E1,0E0,2.0406044E1,0E0,0E0],"parents":[2147483647,0,0,2,2],"right_children":[2,-1,4,-1,-1],"split_conditions":[1.2E2,-5.1246103E-2,7.4915596E1,-4.2510197E-2,1.7937161E-1],"split_indices":[1,0,6,0,0],"split_type":[0,0,0,0,0],"sum_hessian":[1.1771126E2,8.72932E1,3.0418066E1,4.4986086E0,2.5919456E1],"tree_param":{"num_deleted":"0","num_feature":"34","num_nodes":"5","size_leaf_vector":"1"}},{"base_weights":[2.4765993E-3,-5.1121403E-2,7.415344E-1,-4.8049938E-2,1.1780114E0,1.6682402E0,-4.6276808E-2,-3.384153E-2,1.8218583E-1],"categories":[],"categories_nodes":[],"categories_segments":[],"categories_sizes":[],"default_left":[0,0,0,0,0,0,0,0,0],"id":89,"left_children":[1,-1,3,-1,5,7,-1,-1,-1],"loss_changes":[4.591643E1,0E0,2.7018028E1,0E0,3.0396961E1,9.425041E0,0E0,0E0,0E0],"parents":[2147483647,0,0,2,2,4,4,5,5],"right_children":[2,-1,4,-1,6,8,-1,-1,-1],"split_conditions":[8E1,-5.1121403E-2,8.979946E1,-4.8049938E-2,1.2045093E2,3.23254E1,-4.6276808E-2,-3.384153E-2,1.8218583E-1],"split_indices":[0,0,6,0,6,13,0,0,0],"split_type":[0,0,0,0,0,0,0,0,0],"sum_hessian":[1.1894653E2,7.035428E1,4.859226E1,1.2761677E1,3.583058E1,2.7575031E1,8.255549E0,1.8753293E0,2.5699701E1],"tree_param":{"num_deleted":"0","num_feature":"34","num_nodes":"9","size_leaf_vector":"1"}},{"base_weights":[7.359765E-3,-4.8501748E-1,5.9741527E-1,-4.9853817E-2,-1.1883722E-1,1.1961167E0,-4.4659543E-1,2.1108432E-2,-3.23584E-2,-4.5731567E-2,1.6476645E0,1.3155124E-2,-4.918595E-2,1.9329044E-1,-3.9870404E-2],"categories":[],"categories_nodes":[],"categories_segments":[],"categories_sizes":[],"default_left":[0,0,0,0,0,0,0,0,0,0,0,0,0,0,0],"id":90,"left_children":[1,3,5,-1,7,9,11,-1,-1,-1,13,-1,-1,-1,-1],"loss_changes":[3.5256203E1,2.6831055E-1,3.50337E1,0E0,3.1613418E-1,2.7146248E1,6.1018753E-1,0E0,0E0,0E0,1.7105354E1,0E0,0E0,0E0,0E0],"parents":[2147483647,0,0,1,1,2,2,4,4,5,5,6,6,10,10],"right_children":[2,4,6,-1,8,10,12,-1,-1,-1,14,-1,-1,-1,-1],"split_conditions":[6E1,1E0,4.01426E1,-4.9853817E-2,6.5E1,2.5097374E1,1.7E1,2.1108432E-2,-3.23584E-2,-4.5731567E-2,6.971184E1,1.3155124E-2,-4.918595E-2,1.9329044E-1,-3.9870404E-2],"split_indices":[1,29,21,0,23,4,23,0,0,0,5,0,0,0,0],"split_type":[0,0,0,0,0,0,0,0,0,0,0,0,0,0,0],"sum_hessian":[1.19354034E2,6.515929E1,5.419475E1,6.249046E1,2.6688278E0,3.4350388E1,1.9844366E1,1.0101521E0,1.6586758E0,7.365902E0,2.6984484E1,1.3024317E0,1.8541933E1,2.3731972E1,3.252512E0],"tree_param":{"num_deleted":"0","num_feature":"34","num_nodes":"15","size_leaf_vector":"1"}},{"base_weights":[2.3229068E-2,1.6616868E0,-5.126363E-2,1.7682047E-1,-3.0336011E-2],"categories":[],"categories_nodes":[],"categories_segments":[],"categories_sizes":[],"default_left":[0,0,0,0,0],"id":91,"left_children":[1,3,-1,-1,-1],"loss_changes":[1.0626328E2,6.7790833E0,0E0,0E0,0E0],"parents":[2147483647,0,0,1,1],"right_children":[2,4,-1,-1,-1],"split_conditions":[1.876E-1,9.5257996E1,-5.126363E-2,1.7682047E-1,-3.0336011E-2],"split_indices":[8,6,0,0,0],"split_type":[0,0,0,0,0],"sum_hessian":[1.1905958E2,2.8824642E1,9.023493E1,2.7437527E1,1.3871163E0],"tree_param":{"num_deleted":"0","num_feature":"34","num_nodes":"5","size_leaf_vector":"1"}},{"base_weights":[-1.3312397E-2,-4.9944267E-1,9.9154454E-1,-5.1161647E-2,5.0455793E-3,-4.8154928E-2,1.7624158E0,1.9400854E-1,-3.3491395E-2],"categories":[],"categories_nodes":[],"categories_segments":[],"categories_sizes":[],"default_left":[0,0,0,0,0,0,0,0,0],"id":92,"left_children":[1,3,5,-1,-1,-1,7,-1,-1],"loss_changes":[5.679435E1,5.502472E-1,4.3900368E1,0E0,0E0,0E0,1.0003838E1,0E0,0E0],"parents":[2147483647,0,0,1,1,2,2,6,6],"right_children":[2,4,6,-1,-1,-1,8,-1,-1],"split_conditions":[9.0975975E1,9.071037E1,1.2446831E2,-5.1161647E-2,5.0455793E-3,-4.8154928E-2,3.1E1,1.9400854E-1,-3.3491395E-2],"split_indices":[5,5,6,0,0,0,1,0,0],"split_type":[0,0,0,0,0,0,0,0,0],"sum_hessian":[1.1425102E2,7.733893E1,3.6912098E1,7.5731964E1,1.60696E0,1.2809378E1,2.410272E1,2.22895E1,1.813221E0],"tree_param":{"num_deleted":"0","num_feature":"34","num_nodes":"9","size_leaf_vector":"1"}},{"base_weights":[3.9737444E-2,-5.109945E-2,8.2480663E-1,1.962676E0,-4.9735215E-2,-2.7383128E-2,2.0730047E-1],"categories":[],"categories_nodes":[],"categories_segments":[],"categories_sizes":[],"default_left":[0,0,0,0,0,0,0],"id":93,"left_children":[1,-1,3,5,-1,-1,-1],"loss_changes":[5.084052E1,0E0,7.3882065E1,7.044258E0,0E0,0E0,0E0],"parents":[2147483647,0,0,2,2,3,3],"right_children":[2,-1,4,6,-1,-1,-1],"split_conditions":[8E1,-5.109945E-2,7.727E-1,1.0975714E2,-4.9735215E-2,-2.7383128E-2,2.0730047E-1],"split_indices":[0,0,10,6,0,0,0],"split_type":[0,0,0,0,0,0,0],"sum_hessian":[1.1561286E2,6.815249E1,4.7460377E1,2.524753E1,2.2212847E1,1.117258E0,2.4130272E1],"tree_param":{"num_deleted":"0","num_feature":"34","num_nodes":"7","size_leaf_vector":"1"}},{"base_weights":[9.010774E-3,-5.122101E-2,1.2024353E0,1.8028313E0,-4.6997596E-2,1.8376265E-1,5.6814462E-2],"categories":[],"categories_nodes":[],"categories_segments":[],"categories_sizes":[],"default_left":[0,0,0,0,0,0,0],"id":94,"left_children":[1,-1,3,5,-1,-1,-1],"loss_changes":[7.530732E1,0E0,3.7797947E1,1.2815857E-1,0E0,0E0,0E0],"parents":[2147483647,0,0,2,2,3,3],"right_children":[2,-1,4,6,-1,-1,-1],"split_conditions":[1E2,-5.122101E-2,2.6E1,2.16708E1,-4.6997596E-2,1.8376265E-1,5.6814462E-2],"split_indices":[0,0,2,20,0,0,0],"split_type":[0,0,0,0,0,0,0],"sum_hessian":[1.1907539E2,8.327595E1,3.579945E1,2.6285107E1,9.514342E0,2.508971E1,1.1953962E0],"tree_param":{"num_deleted":"0","num_feature":"34","num_nodes":"7","size_leaf_vector":"1"}},{"base_weights":[-1.2702609E-2,-5.124694E-2,1.4557214E0,1.7895703E-1,-4.217313E-2],"categories":[],"categories_nodes":[],"categories_segments":[],"categories_sizes":[],"default_left":[0,0,0,0,0],"id":95,"left_children":[1,-1,3,-1,-1],"loss_changes":[8.699844E1,0E0,1.9623512E1,0E0,0E0],"parents":[2147483647,0,0,2,2],"right_children":[2,-1,4,-1,-1],"split_conditions":[1.95E2,-5.124694E-2,8.404404E1,1.7895703E-1,-4.217313E-2],"split_indices":[2,0,5,0,0],"split_type":[0,0,0,0,0],"sum_hessian":[1.1653102E2,8.742694E1,2.9104078E1,2.4749865E1,4.3542147E0],"tree_param":{"num_deleted":"0","num_feature":"34","num_nodes":"5","size_leaf_vector":"1"}},{"base_weights":[-1.5878087E-2,-5.116452E-2,8.916682E-1,-4.6282243E-2,1.2169862E0,1.4237115E0,-4.0844604E-2,-4.2085674E-2,1.6642873E-1],"categories":[],"categories_nodes":[],"categories_segments":[],"categories_sizes":[],"default_left":[0,0,0,0,0,0,0,0,0],"id":96,"left_children":[1,-1,3,-1,5,7,-1,-1,-1],"loss_changes":[5.446724E1,0E0,1.9411053E1,0E0,1.2263344E1,1.448613E1,0E0,0E0,0E0],"parents":[2147483647,0,0,2,2,4,4,5,5],"right_children":[2,-1,4,-1,6,8,-1,-1,-1],"split_conditions":[1.4922203E2,-5.116452E-2,5.9E1,-4.6282243E-2,2.0008827E2,8.404E-1,-4.0844604E-2,-4.2085674E-2,1.6642873E-1],"split_indices":[6,0,0,0,6,9,0,0,0],"split_type":[0,0,0,0,0,0,0,0,0],"sum_hessian":[1.1904274E2,7.726906E1,4.1773685E1,8.00819E0,3.3765495E1,3.0065779E1,3.6997173E0,3.3824122E0,2.6683367E1],"tree_param":{"num_deleted":"0","num_feature":"34","num_nodes":"9","size_leaf_vector":"1"}},{"base_weights":[8.8158315E-3,1.4561446E0,-5.125882E-2,1.8058106E0,-4.2961847E-2,1.8427923E-1,5.605353E-2],"categories":[],"categories_nodes":[],"categories_segments":[],"categories_sizes":[],"default_left":[0,0,0,0,0,0,0],"id":97,"left_children":[1,3,-1,5,-1,-1,-1],"loss_changes":[9.146113E1,2.1940002E1,0E0,2.228241E-1,0E0,0E0,0E0],"parents":[2147483647,0,0,1,1,3,3],"right_children":[2,4,-1,6,-1,-1,-1],"split_conditions":[2.648E-1,6.0002484E0,-5.125882E-2,2.079E-1,-4.2961847E-2,1.8427923E-1,5.605353E-2],"split_indices":[7,3,0,7,0,0,0],"split_type":[0,0,0,0,0,0,0],"sum_hessian":[1.1920879E2,3.1096758E1,8.811204E1,2.6268366E1,4.828392E0,2.5044767E1,1.223599E0],"tree_param":{"num_deleted":"0","num_feature":"34","num_nodes":"7","size_leaf_vector":"1"}},{"base_weights":[1.30953705E-2,1.0472683E0,-5.116966E-2,-4.79648E-2,1.7553356E0,1.8787397E0,-3.1005979E-2,1.773367E-2,1.9462626E-1],"categories":[],"categories_nodes":[],"categories_segments":[],"categories_sizes":[],"default_left":[0,0,0,0,0,0,0,0,0],"id":98,"left_children":[1,3,-1,-1,5,7,-1,-1,-1],"loss_changes":[6.3662876E1,4.352945E1,0E0,0E0,7.512413E0,2.6185913E0,0E0,0E0,0E0],"parents":[2147483647,0,0,1,1,4,4,5,5],"right_children":[2,4,-1,-1,6,8,-1,-1,-1],"split_conditions":[5.521607E1,5.5E1,-5.116966E-2,-4.79648E-2,6.971184E1,7.081E-1,-3.1005979E-2,1.773367E-2,1.9462626E-1],"split_indices":[6,1,0,0,5,9,0,0,0],"split_type":[0,0,0,0,0,0,0,0,0],"sum_hessian":[1.15314735E2,3.8483078E1,7.683166E1,1.2294064E1,2.6189016E1,2.4797762E1,1.3912544E0,1.0849931E0,2.3712769E1],"tree_param":{"num_deleted":"0","num_feature":"34","num_nodes":"9","size_leaf_vector":"1"}},{"base_weights":[-5.3756107E-2,3.9222288E-1,-5.093289E-2,-4.9453724E-2,8.881671E-1,1.2872456E0,-4.6325024E-2,1.5604055E-1,-4.138019E-2],"categories":[],"categories_nodes":[],"categories_segments":[],"categories_sizes":[],"default_left":[0,0,0,0,0,0,0,0,0],"id":99,"left_children":[1,3,-1,-1,5,7,-1,-1,-1],"loss_changes":[2.3412312E1,2.6077328E1,0E0,0E0,2.095297E1,1.4308712E1,0E0,0E0,0E0],"parents":[2147483647,0,0,1,1,4,4,5,5],"right_children":[2,4,-1,-1,6,8,-1,-1,-1],"split_conditions":[8.851E-1,5.056E-1,-5.093289E-2,-4.9453724E-2,6.1E1,1.0975714E2,-4.6325024E-2,1.5604055E-1,-4.138019E-2],"split_indices":[9,8,0,0,1,6,0,0,0],"split_type":[0,0,0,0,0,0,0,0,0],"sum_hessian":[1.132485E2,5.729708E1,5.595142E1,2.0552162E1,3.674492E1,2.8404463E1,8.340457E0,2.4545538E1,3.858924E0],"tree_param":{"num_deleted":"0","num_feature":"34","num_nodes":"9","size_leaf_vector":"1"}},{"base_weights":[-2.3096733E-2,9.2447513E-1,-5.1166423E-2,1.7172617E0,-4.849441E-2,1.8779176E-1,-3.3121098E-2],"categories":[],"categories_nodes":[],"categories_segments":[],"categories_sizes":[],"default_left":[0,0,0,0,0,0,0],"id":100,"left_children":[1,3,-1,5,-1,-1,-1],"loss_changes":[5.4685577E1,4.574394E1,0E0,9.16024E0,0E0,0E0,0E0],"parents":[2147483647,0,0,1,1,3,3],"right_children":[2,4,-1,6,-1,-1,-1],"split_conditions":[5.5187923E1,4.1E1,-5.1166423E-2,4.1E1,-4.849441E-2,1.8779176E-1,-3.3121098E-2],"split_indices":[5,1,0,0,0,0,0],"split_type":[0,0,0,0,0,0,0],"sum_hessian":[1.16101685E2,3.9193687E1,7.6908E1,2.4944307E1,1.4249381E1,2.320747E1,1.7368381E0],"tree_param":{"num_deleted":"0","num_feature":"34","num_nodes":"7","size_leaf_vector":"1"}},{"base_weights":[2.0961763E-2,7.6344836E-1,-4.9681187E-1,